SNNS network definition file V1.4-3D
generated at Fri Nov 23 20:41:38 2007

network name : binaryDelta
source files :
no. of units : 389
no. of connections : 9024
no. of unit types : 0
no. of site types : 0


learning function : BackpropMomentum
update function   : Topological_Order


unit default section :

act      | bias     | st | subnet | layer | act func     | out func
---------|----------|----|--------|-------|--------------|-------------
 0.00000 |  0.00000 | h  |      0 |     1 | Act_Logistic | Out_Identity 
---------|----------|----|--------|-------|--------------|-------------


unit definition section :

no. | typeName | unitName     | act      | bias     | st | position | act func | out func | sites
----|----------|--------------|----------|----------|----|----------|----------|----------|-------
  1 |          | lg_post_0_0  |  0.00000 |  0.51479 | i  |  2, 0, 1 | Act_TanH |          | 
  2 |          | lg_post_0_1  |  0.00000 |  0.44384 | i  |  3, 0, 1 | Act_TanH |          | 
  3 |          | lg_post_0_2  |  0.00000 |  0.81540 | i  |  4, 0, 1 | Act_TanH |          | 
  4 |          | lg_post_0_3  |  0.00000 |  0.10459 | i  |  5, 0, 1 | Act_TanH |          | 
  5 |          | lg_post_0_4  |  0.00000 |  0.20447 | i  |  6, 0, 1 | Act_TanH |          | 
  6 |          | lg_post_0_5  |  0.00000 |  0.50619 | i  |  7, 0, 1 | Act_TanH |          | 
  7 |          | lg_post_0_6  |  0.00000 |  0.92074 | i  |  8, 0, 1 | Act_TanH |          | 
  8 |          | lg_post_0_7  |  0.00000 |  0.96114 | i  |  9, 0, 1 | Act_TanH |          | 
  9 |          | lg_post_0_8  |  0.00000 | -0.15476 | i  | 10, 0, 1 | Act_TanH |          | 
 10 |          | lg_post_0_9  |  0.00000 | -0.32964 | i  | 11, 0, 1 | Act_TanH |          | 
 11 |          | lg_post_0_10 |  0.00000 |  0.09131 | i  | 12, 0, 1 | Act_TanH |          | 
 12 |          | lg_post_0_11 |  0.00000 |  0.96070 | i  | 13, 0, 1 | Act_TanH |          | 
 13 |          | lg_post_0_12 |  0.00000 | -0.57497 | i  | 14, 0, 1 | Act_TanH |          | 
 14 |          | lg_post_0_13 |  0.00000 |  0.68474 | i  | 15, 0, 1 | Act_TanH |          | 
 15 |          | lg_post_0_14 |  0.00000 | -0.48565 | i  | 16, 0, 1 | Act_TanH |          | 
 16 |          | lg_post_0_15 |  0.00000 |  0.59312 | i  | 17, 0, 1 | Act_TanH |          | 
 17 |          | lg_post_0_16 |  0.00000 | -0.09691 | i  | 18, 0, 1 | Act_TanH |          | 
 18 |          | lg_post_0_17 |  0.00000 | -0.67086 | i  | 19, 0, 1 | Act_TanH |          | 
 19 |          | lg_post_0_18 |  0.00000 | -0.28451 | i  | 20, 0, 1 | Act_TanH |          | 
 20 |          | lg_post_0_19 |  0.00000 | -0.05817 | i  | 21, 0, 1 | Act_TanH |          | 
 21 |          | lg_post_0_20 |  0.00000 |  0.16941 | i  | 22, 0, 1 | Act_TanH |          | 
 22 |          | lg_post_1_0  |  0.00000 |  0.02855 | i  |  2, 1, 1 | Act_TanH |          | 
 23 |          | lg_post_1_1  |  0.00000 |  0.94908 | i  |  3, 1, 1 | Act_TanH |          | 
 24 |          | lg_post_1_2  |  0.00000 | -0.13979 | i  |  4, 1, 1 | Act_TanH |          | 
 25 |          | lg_post_1_3  |  0.00000 | -0.51104 | i  |  5, 1, 1 | Act_TanH |          | 
 26 |          | lg_post_1_4  |  0.00000 | -0.64719 | i  |  6, 1, 1 | Act_TanH |          | 
 27 |          | lg_post_1_5  |  0.00000 | -0.91867 | i  |  7, 1, 1 | Act_TanH |          | 
 28 |          | lg_post_1_6  |  0.00000 | -0.89678 | i  |  8, 1, 1 | Act_TanH |          | 
 29 |          | lg_post_1_7  |  0.00000 |  0.96941 | i  |  9, 1, 1 | Act_TanH |          | 
 30 |          | lg_post_1_8  |  0.00000 |  0.57827 | i  | 10, 1, 1 | Act_TanH |          | 
 31 |          | lg_post_1_9  |  0.00000 |  0.11274 | i  | 11, 1, 1 | Act_TanH |          | 
 32 |          | lg_post_1_10 |  0.00000 |  0.67808 | i  | 12, 1, 1 | Act_TanH |          | 
 33 |          | lg_post_1_11 |  0.00000 |  0.55372 | i  | 13, 1, 1 | Act_TanH |          | 
 34 |          | lg_post_1_12 |  0.00000 |  0.79373 | i  | 14, 1, 1 | Act_TanH |          | 
 35 |          | lg_post_1_13 |  0.00000 | -0.94248 | i  | 15, 1, 1 | Act_TanH |          | 
 36 |          | lg_post_1_14 |  0.00000 |  0.79770 | i  | 16, 1, 1 | Act_TanH |          | 
 37 |          | lg_post_1_15 |  0.00000 |  0.17901 | i  | 17, 1, 1 | Act_TanH |          | 
 38 |          | lg_post_1_16 |  0.00000 |  0.90501 | i  | 18, 1, 1 | Act_TanH |          | 
 39 |          | lg_post_1_17 |  0.00000 | -0.79698 | i  | 19, 1, 1 | Act_TanH |          | 
 40 |          | lg_post_1_18 |  0.00000 | -0.21370 | i  | 20, 1, 1 | Act_TanH |          | 
 41 |          | lg_post_1_19 |  0.00000 | -0.33321 | i  | 21, 1, 1 | Act_TanH |          | 
 42 |          | lg_post_1_20 |  0.00000 | -0.46066 | i  | 22, 1, 1 | Act_TanH |          | 
 43 |          | lg_post_2_0  |  0.00000 |  0.59142 | i  |  2, 2, 1 | Act_TanH |          | 
 44 |          | lg_post_2_1  |  0.00000 |  0.04152 | i  |  3, 2, 1 | Act_TanH |          | 
 45 |          | lg_post_2_2  |  0.00000 |  0.44344 | i  |  4, 2, 1 | Act_TanH |          | 
 46 |          | lg_post_2_3  |  0.00000 | -0.67492 | i  |  5, 2, 1 | Act_TanH |          | 
 47 |          | lg_post_2_4  |  0.00000 | -0.35390 | i  |  6, 2, 1 | Act_TanH |          | 
 48 |          | lg_post_2_5  |  0.00000 | -0.76068 | i  |  7, 2, 1 | Act_TanH |          | 
 49 |          | lg_post_2_6  |  0.00000 | -0.12077 | i  |  8, 2, 1 | Act_TanH |          | 
 50 |          | lg_post_2_7  |  0.00000 |  0.72050 | i  |  9, 2, 1 | Act_TanH |          | 
 51 |          | lg_post_2_8  |  0.00000 | -0.57564 | i  | 10, 2, 1 | Act_TanH |          | 
 52 |          | lg_post_2_9  |  0.00000 |  0.00697 | i  | 11, 2, 1 | Act_TanH |          | 
 53 |          | lg_post_2_10 |  0.00000 | -0.35800 | i  | 12, 2, 1 | Act_TanH |          | 
 54 |          | lg_post_2_11 |  0.00000 | -0.27185 | i  | 13, 2, 1 | Act_TanH |          | 
 55 |          | lg_post_2_12 |  0.00000 |  0.20104 | i  | 14, 2, 1 | Act_TanH |          | 
 56 |          | lg_post_2_13 |  0.00000 | -0.48962 | i  | 15, 2, 1 | Act_TanH |          | 
 57 |          | lg_post_2_14 |  0.00000 | -0.52923 | i  | 16, 2, 1 | Act_TanH |          | 
 58 |          | lg_post_2_15 |  0.00000 | -0.95826 | i  | 17, 2, 1 | Act_TanH |          | 
 59 |          | lg_post_2_16 |  0.00000 |  0.62837 | i  | 18, 2, 1 | Act_TanH |          | 
 60 |          | lg_post_2_17 |  0.00000 | -0.87630 | i  | 19, 2, 1 | Act_TanH |          | 
 61 |          | lg_post_2_18 |  0.00000 | -0.11362 | i  | 20, 2, 1 | Act_TanH |          | 
 62 |          | lg_post_2_19 |  0.00000 |  0.85973 | i  | 21, 2, 1 | Act_TanH |          | 
 63 |          | lg_post_2_20 |  0.00000 | -0.79954 | i  | 22, 2, 1 | Act_TanH |          | 
 64 |          | lg_post_3_0  |  0.00000 |  0.48283 | i  |  2, 3, 1 | Act_TanH |          | 
 65 |          | lg_post_3_1  |  0.00000 | -0.01003 | i  |  3, 3, 1 | Act_TanH |          | 
 66 |          | lg_post_3_2  |  0.00000 |  0.53338 | i  |  4, 3, 1 | Act_TanH |          | 
 67 |          | lg_post_3_3  |  0.00000 | -0.73448 | i  |  5, 3, 1 | Act_TanH |          | 
 68 |          | lg_post_3_4  |  0.00000 | -0.22305 | i  |  6, 3, 1 | Act_TanH |          | 
 69 |          | lg_post_3_5  |  0.00000 | -0.70472 | i  |  7, 3, 1 | Act_TanH |          | 
 70 |          | lg_post_3_6  |  0.00000 | -0.98569 | i  |  8, 3, 1 | Act_TanH |          | 
 71 |          | lg_post_3_7  |  0.00000 | -0.56127 | i  |  9, 3, 1 | Act_TanH |          | 
 72 |          | lg_post_3_8  |  0.00000 | -0.29774 | i  | 10, 3, 1 | Act_TanH |          | 
 73 |          | lg_post_3_9  |  0.00000 | -0.14592 | i  | 11, 3, 1 | Act_TanH |          | 
 74 |          | lg_post_3_10 |  0.00000 |  0.68493 | i  | 12, 3, 1 | Act_TanH |          | 
 75 |          | lg_post_3_11 |  0.00000 | -0.49963 | i  | 13, 3, 1 | Act_TanH |          | 
 76 |          | lg_post_3_12 |  0.00000 |  0.78371 | i  | 14, 3, 1 | Act_TanH |          | 
 77 |          | lg_post_3_13 |  0.00000 | -0.65799 | i  | 15, 3, 1 | Act_TanH |          | 
 78 |          | lg_post_3_14 |  0.00000 | -0.60201 | i  | 16, 3, 1 | Act_TanH |          | 
 79 |          | lg_post_3_15 |  0.00000 | -0.78321 | i  | 17, 3, 1 | Act_TanH |          | 
 80 |          | lg_post_3_16 |  0.00000 | -0.94962 | i  | 18, 3, 1 | Act_TanH |          | 
 81 |          | lg_post_3_17 |  0.00000 | -0.43013 | i  | 19, 3, 1 | Act_TanH |          | 
 82 |          | lg_post_3_18 |  0.00000 |  0.56521 | i  | 20, 3, 1 | Act_TanH |          | 
 83 |          | lg_post_3_19 |  0.00000 | -0.03711 | i  | 21, 3, 1 | Act_TanH |          | 
 84 |          | lg_post_3_20 |  0.00000 |  0.70937 | i  | 22, 3, 1 | Act_TanH |          | 
 85 |          | lg_post_4_0  |  0.00000 | -0.41436 | i  |  2, 4, 1 | Act_TanH |          | 
 86 |          | lg_post_4_1  |  0.00000 |  0.91000 | i  |  3, 4, 1 | Act_TanH |          | 
 87 |          | lg_post_4_2  |  0.00000 |  0.48854 | i  |  4, 4, 1 | Act_TanH |          | 
 88 |          | lg_post_4_3  |  0.00000 |  0.47621 | i  |  5, 4, 1 | Act_TanH |          | 
 89 |          | lg_post_4_4  |  0.00000 |  0.36962 | i  |  6, 4, 1 | Act_TanH |          | 
 90 |          | lg_post_4_5  |  0.00000 |  0.36895 | i  |  7, 4, 1 | Act_TanH |          | 
 91 |          | lg_post_4_6  |  0.00000 |  0.06337 | i  |  8, 4, 1 | Act_TanH |          | 
 92 |          | lg_post_4_7  |  0.00000 |  0.65511 | i  |  9, 4, 1 | Act_TanH |          | 
 93 |          | lg_post_4_8  |  0.00000 | -0.45264 | i  | 10, 4, 1 | Act_TanH |          | 
 94 |          | lg_post_4_9  |  0.00000 |  0.76986 | i  | 11, 4, 1 | Act_TanH |          | 
 95 |          | lg_post_4_10 |  0.00000 |  0.92648 | i  | 12, 4, 1 | Act_TanH |          | 
 96 |          | lg_post_4_11 |  0.00000 |  0.58189 | i  | 13, 4, 1 | Act_TanH |          | 
 97 |          | lg_post_4_12 |  0.00000 | -0.27424 | i  | 14, 4, 1 | Act_TanH |          | 
 98 |          | lg_post_4_13 |  0.00000 |  0.85092 | i  | 15, 4, 1 | Act_TanH |          | 
 99 |          | lg_post_4_14 |  0.00000 |  0.30274 | i  | 16, 4, 1 | Act_TanH |          | 
100 |          | lg_post_4_15 |  0.00000 | -0.59737 | i  | 17, 4, 1 | Act_TanH |          | 
101 |          | lg_post_4_16 |  0.00000 |  0.38229 | i  | 18, 4, 1 | Act_TanH |          | 
102 |          | lg_post_4_17 |  0.00000 | -0.71754 | i  | 19, 4, 1 | Act_TanH |          | 
103 |          | lg_post_4_18 |  0.00000 | -0.96509 | i  | 20, 4, 1 | Act_TanH |          | 
104 |          | lg_post_4_19 |  0.00000 |  0.71043 | i  | 21, 4, 1 | Act_TanH |          | 
105 |          | lg_post_4_20 |  0.00000 |  0.81566 | i  | 22, 4, 1 | Act_TanH |          | 
106 |          | lg_post_5_0  |  0.00000 | -0.68223 | i  |  2, 5, 1 | Act_TanH |          | 
107 |          | lg_post_5_1  |  0.00000 | -0.59896 | i  |  3, 5, 1 | Act_TanH |          | 
108 |          | lg_post_5_2  |  0.00000 |  0.74587 | i  |  4, 5, 1 | Act_TanH |          | 
109 |          | lg_post_5_3  |  0.00000 |  0.82341 | i  |  5, 5, 1 | Act_TanH |          | 
110 |          | lg_post_5_4  |  0.00000 | -0.91402 | i  |  6, 5, 1 | Act_TanH |          | 
111 |          | lg_post_5_5  |  0.00000 |  0.18728 | i  |  7, 5, 1 | Act_TanH |          | 
112 |          | lg_post_5_6  |  0.00000 | -0.28035 | i  |  8, 5, 1 | Act_TanH |          | 
113 |          | lg_post_5_7  |  0.00000 |  0.55247 | i  |  9, 5, 1 | Act_TanH |          | 
114 |          | lg_post_5_8  |  0.00000 |  0.24413 | i  | 10, 5, 1 | Act_TanH |          | 
115 |          | lg_post_5_9  |  0.00000 |  0.28345 | i  | 11, 5, 1 | Act_TanH |          | 
116 |          | lg_post_5_10 |  0.00000 |  0.47048 | i  | 12, 5, 1 | Act_TanH |          | 
117 |          | lg_post_5_11 |  0.00000 |  0.63758 | i  | 13, 5, 1 | Act_TanH |          | 
118 |          | lg_post_5_12 |  0.00000 | -0.53225 | i  | 14, 5, 1 | Act_TanH |          | 
119 |          | lg_post_5_13 |  0.00000 |  0.64947 | i  | 15, 5, 1 | Act_TanH |          | 
120 |          | lg_post_5_14 |  0.00000 |  0.85113 | i  | 16, 5, 1 | Act_TanH |          | 
121 |          | lg_post_5_15 |  0.00000 |  0.28081 | i  | 17, 5, 1 | Act_TanH |          | 
122 |          | lg_post_5_16 |  0.00000 | -0.83652 | i  | 18, 5, 1 | Act_TanH |          | 
123 |          | lg_post_5_17 |  0.00000 | -0.38225 | i  | 19, 5, 1 | Act_TanH |          | 
124 |          | lg_post_5_18 |  0.00000 |  0.75990 | i  | 20, 5, 1 | Act_TanH |          | 
125 |          | lg_post_5_19 |  0.00000 |  0.53513 | i  | 21, 5, 1 | Act_TanH |          | 
126 |          | lg_post_5_20 |  0.00000 |  0.76089 | i  | 22, 5, 1 | Act_TanH |          | 
127 |          | lg_post_6_0  |  0.00000 |  0.27408 | i  |  2, 6, 1 | Act_TanH |          | 
128 |          | lg_post_6_1  |  0.00000 |  0.01517 | i  |  3, 6, 1 | Act_TanH |          | 
129 |          | lg_post_6_2  |  0.00000 |  0.65566 | i  |  4, 6, 1 | Act_TanH |          | 
130 |          | lg_post_6_3  |  0.00000 |  0.25599 | i  |  5, 6, 1 | Act_TanH |          | 
131 |          | lg_post_6_4  |  0.00000 | -0.31125 | i  |  6, 6, 1 | Act_TanH |          | 
132 |          | lg_post_6_5  |  0.00000 |  0.81301 | i  |  7, 6, 1 | Act_TanH |          | 
133 |          | lg_post_6_6  |  0.00000 |  0.11302 | i  |  8, 6, 1 | Act_TanH |          | 
134 |          | lg_post_6_7  |  0.00000 |  0.44999 | i  |  9, 6, 1 | Act_TanH |          | 
135 |          | lg_post_6_8  |  0.00000 |  0.61119 | i  | 10, 6, 1 | Act_TanH |          | 
136 |          | lg_post_6_9  |  0.00000 |  0.41241 | i  | 11, 6, 1 | Act_TanH |          | 
137 |          | lg_post_6_10 |  0.00000 | -0.41959 | i  | 12, 6, 1 | Act_TanH |          | 
138 |          | lg_post_6_11 |  0.00000 | -0.98577 | i  | 13, 6, 1 | Act_TanH |          | 
139 |          | lg_post_6_12 |  0.00000 |  0.92451 | i  | 14, 6, 1 | Act_TanH |          | 
140 |          | lg_post_6_13 |  0.00000 |  0.15146 | i  | 15, 6, 1 | Act_TanH |          | 
141 |          | lg_post_6_14 |  0.00000 |  0.98774 | i  | 16, 6, 1 | Act_TanH |          | 
142 |          | lg_post_6_15 |  0.00000 | -0.58351 | i  | 17, 6, 1 | Act_TanH |          | 
143 |          | lg_post_6_16 |  0.00000 | -0.32062 | i  | 18, 6, 1 | Act_TanH |          | 
144 |          | lg_post_6_17 |  0.00000 | -0.30029 | i  | 19, 6, 1 | Act_TanH |          | 
145 |          | lg_post_6_18 |  0.00000 | -0.62512 | i  | 20, 6, 1 | Act_TanH |          | 
146 |          | lg_post_6_19 |  0.00000 | -0.48563 | i  | 21, 6, 1 | Act_TanH |          | 
147 |          | lg_post_6_20 |  0.00000 |  0.35619 | i  | 22, 6, 1 | Act_TanH |          | 
148 |          | lg_post_0_0  | -0.84643 | -1.24341 | h  |  2, 8, 1 | Act_TanH |          | 
149 |          | lg_post_0_1  | -0.77012 | -1.02062 | h  |  3, 8, 1 | Act_TanH |          | 
150 |          | lg_post_0_2  |  0.95098 |  1.84192 | h  |  4, 8, 1 | Act_TanH |          | 
151 |          | lg_post_0_3  | -0.49156 | -0.53812 | h  |  5, 8, 1 | Act_TanH |          | 
152 |          | lg_post_0_4  |  0.37159 |  0.39026 | h  |  6, 8, 1 | Act_TanH |          | 
153 |          | lg_post_0_5  | -0.41589 | -0.44272 | h  |  7, 8, 1 | Act_TanH |          | 
154 |          | lg_post_0_6  |  0.87243 |  1.34318 | h  |  8, 8, 1 | Act_TanH |          | 
155 |          | lg_post_0_7  | -0.82869 | -1.18393 | h  |  9, 8, 1 | Act_TanH |          | 
156 |          | lg_post_0_8  |  0.94977 |  1.82944 | h  | 10, 8, 1 | Act_TanH |          | 
157 |          | lg_post_0_9  |  0.87051 |  1.33520 | h  | 11, 8, 1 | Act_TanH |          | 
158 |          | lg_post_0_10 |  0.71223 |  0.89170 | h  | 12, 8, 1 | Act_TanH |          | 
159 |          | lg_post_1_0  | -0.54403 | -0.60986 | h  |  2, 9, 1 | Act_TanH |          | 
160 |          | lg_post_1_1  |  0.02110 |  0.02110 | h  |  3, 9, 1 | Act_TanH |          | 
161 |          | lg_post_1_2  | -0.82476 | -1.17153 | h  |  4, 9, 1 | Act_TanH |          | 
162 |          | lg_post_1_3  | -0.83289 | -1.19749 | h  |  5, 9, 1 | Act_TanH |          | 
163 |          | lg_post_1_4  | -0.86288 | -1.30450 | h  |  6, 9, 1 | Act_TanH |          | 
164 |          | lg_post_1_5  |  0.18070 |  0.18270 | h  |  7, 9, 1 | Act_TanH |          | 
165 |          | lg_post_1_6  |  0.89094 |  1.42646 | h  |  8, 9, 1 | Act_TanH |          | 
166 |          | lg_post_1_7  |  0.05838 |  0.05844 | h  |  9, 9, 1 | Act_TanH |          | 
167 |          | lg_post_1_8  |  0.85098 |  1.25970 | h  | 10, 9, 1 | Act_TanH |          | 
168 |          | lg_post_1_9  |  0.64589 |  0.76822 | h  | 11, 9, 1 | Act_TanH |          | 
169 |          | lg_post_1_10 | -0.90779 | -1.51483 | h  | 12, 9, 1 | Act_TanH |          | 
170 |          | lg_post_2_0  | -0.81865 | -1.15271 | h  |  2,10, 1 | Act_TanH |          | 
171 |          | lg_post_2_1  | -0.55345 | -0.62335 | h  |  3,10, 1 | Act_TanH |          | 
172 |          | lg_post_2_2  | -0.54187 | -0.60680 | h  |  4,10, 1 | Act_TanH |          | 
173 |          | lg_post_2_3  | -0.74174 | -0.95433 | h  |  5,10, 1 | Act_TanH |          | 
174 |          | lg_post_2_4  |  0.75004 |  0.97304 | h  |  6,10, 1 | Act_TanH |          | 
175 |          | lg_post_2_5  | -0.90144 | -1.47983 | h  |  7,10, 1 | Act_TanH |          | 
176 |          | lg_post_2_6  |  0.93062 |  1.66297 | h  |  8,10, 1 | Act_TanH |          | 
177 |          | lg_post_2_7  |  0.12438 |  0.12503 | h  |  9,10, 1 | Act_TanH |          | 
178 |          | lg_post_2_8  |  0.22483 |  0.22873 | h  | 10,10, 1 | Act_TanH |          | 
179 |          | lg_post_2_9  | -0.83065 | -1.19023 | h  | 11,10, 1 | Act_TanH |          | 
180 |          | lg_post_2_10 |  0.91183 |  1.53825 | h  | 12,10, 1 | Act_TanH |          | 
181 |          | lg_post_3_0  |  0.06409 |  0.06418 | h  |  2,11, 1 | Act_TanH |          | 
182 |          | lg_post_3_1  |  0.13199 |  0.13277 | h  |  3,11, 1 | Act_TanH |          | 
183 |          | lg_post_3_2  | -0.80039 | -1.09969 | h  |  4,11, 1 | Act_TanH |          | 
184 |          | lg_post_3_3  |  0.90147 |  1.48000 | h  |  5,11, 1 | Act_TanH |          | 
185 |          | lg_post_3_4  | -0.81716 | -1.14822 | h  |  6,11, 1 | Act_TanH |          | 
186 |          | lg_post_3_5  |  0.76924 |  1.01847 | h  |  7,11, 1 | Act_TanH |          | 
187 |          | lg_post_3_6  |  0.51808 |  0.57371 | h  |  8,11, 1 | Act_TanH |          | 
188 |          | lg_post_3_7  | -0.11811 | -0.11866 | h  |  9,11, 1 | Act_TanH |          | 
189 |          | lg_post_3_8  |  0.50449 |  0.55530 | h  | 10,11, 1 | Act_TanH |          | 
190 |          | lg_post_3_9  | -0.78565 | -1.05996 | h  | 11,11, 1 | Act_TanH |          | 
191 |          | lg_post_3_10 | -0.71022 | -0.88763 | h  | 12,11, 1 | Act_TanH |          | 
192 |          | lg_pre_0_0   |  0.00000 | -0.19863 | i  |  2,16, 1 | Act_TanH |          | 
193 |          | lg_pre_0_1   |  0.00000 |  0.28236 | i  |  3,16, 1 | Act_TanH |          | 
194 |          | lg_pre_0_2   |  0.00000 |  0.41216 | i  |  4,16, 1 | Act_TanH |          | 
195 |          | lg_pre_0_3   |  1.00000 |  0.93948 | i  |  5,16, 1 | Act_TanH |          | 
196 |          | lg_pre_0_4   |  0.00000 |  0.47806 | i  |  6,16, 1 | Act_TanH |          | 
197 |          | lg_pre_0_5   |  0.00000 | -0.06621 | i  |  7,16, 1 | Act_TanH |          | 
198 |          | lg_pre_0_6   |  0.00000 | -0.41066 | i  |  8,16, 1 | Act_TanH |          | 
199 |          | lg_pre_1_0   |  0.00000 | -0.57468 | i  |  2,17, 1 | Act_TanH |          | 
200 |          | lg_pre_1_1   |  0.00000 | -0.71000 | i  |  3,17, 1 | Act_TanH |          | 
201 |          | lg_pre_1_2   |  0.00000 | -0.74864 | i  |  4,17, 1 | Act_TanH |          | 
202 |          | lg_pre_1_3   |  1.00000 | -0.80735 | i  |  5,17, 1 | Act_TanH |          | 
203 |          | lg_pre_1_4   |  0.00000 |  0.57208 | i  |  6,17, 1 | Act_TanH |          | 
204 |          | lg_pre_1_5   |  0.00000 | -0.80083 | i  |  7,17, 1 | Act_TanH |          | 
205 |          | lg_pre_1_6   |  0.00000 |  0.16491 | i  |  8,17, 1 | Act_TanH |          | 
206 |          | lg_pre_2_0   |  0.00000 |  0.60804 | i  |  2,18, 1 | Act_TanH |          | 
207 |          | lg_pre_2_1   |  0.00000 |  0.78780 | i  |  3,18, 1 | Act_TanH |          | 
208 |          | lg_pre_2_2   |  0.00000 |  0.29373 | i  |  4,18, 1 | Act_TanH |          | 
209 |          | lg_pre_2_3   |  0.00000 |  0.74875 | i  |  5,18, 1 | Act_TanH |          | 
210 |          | lg_pre_2_4   |  1.00000 |  0.80706 | i  |  6,18, 1 | Act_TanH |          | 
211 |          | lg_pre_2_5   |  0.00000 |  0.35207 | i  |  7,18, 1 | Act_TanH |          | 
212 |          | lg_pre_2_6   |  0.00000 |  0.19154 | i  |  8,18, 1 | Act_TanH |          | 
213 |          | lg_pre_3_0   |  0.00000 |  0.53987 | i  |  2,19, 1 | Act_TanH |          | 
214 |          | lg_pre_3_1   |  0.00000 |  0.08938 | i  |  3,19, 1 | Act_TanH |          | 
215 |          | lg_pre_3_2   |  0.00000 |  0.27678 | i  |  4,19, 1 | Act_TanH |          | 
216 |          | lg_pre_3_3   |  0.00000 |  0.29921 | i  |  5,19, 1 | Act_TanH |          | 
217 |          | lg_pre_3_4   |  0.00000 | -0.57832 | i  |  6,19, 1 | Act_TanH |          | 
218 |          | lg_pre_3_5   |  0.00000 | -0.73436 | i  |  7,19, 1 | Act_TanH |          | 
219 |          | lg_pre_3_6   |  0.00000 |  0.70337 | i  |  8,19, 1 | Act_TanH |          | 
220 |          | lg_pre_4_0   |  0.00000 | -0.38857 | i  |  2,20, 1 | Act_TanH |          | 
221 |          | lg_pre_4_1   |  0.00000 |  0.95280 | i  |  3,20, 1 | Act_TanH |          | 
222 |          | lg_pre_4_2   |  0.00000 | -0.54280 | i  |  4,20, 1 | Act_TanH |          | 
223 |          | lg_pre_4_3   |  0.00000 | -0.26321 | i  |  5,20, 1 | Act_TanH |          | 
224 |          | lg_pre_4_4   |  0.00000 |  0.83959 | i  |  6,20, 1 | Act_TanH |          | 
225 |          | lg_pre_4_5   |  0.00000 |  0.45712 | i  |  7,20, 1 | Act_TanH |          | 
226 |          | lg_pre_4_6   |  0.00000 | -0.07893 | i  |  8,20, 1 | Act_TanH |          | 
227 |          | lg_pre_5_0   |  0.00000 |  0.09381 | i  |  2,21, 1 | Act_TanH |          | 
228 |          | lg_pre_5_1   |  0.00000 |  0.35871 | i  |  3,21, 1 | Act_TanH |          | 
229 |          | lg_pre_5_2   |  0.00000 |  0.16160 | i  |  4,21, 1 | Act_TanH |          | 
230 |          | lg_pre_5_3   |  0.00000 | -0.93597 | i  |  5,21, 1 | Act_TanH |          | 
231 |          | lg_pre_5_4   |  0.00000 |  0.68413 | i  |  6,21, 1 | Act_TanH |          | 
232 |          | lg_pre_5_5   |  0.00000 | -0.29897 | i  |  7,21, 1 | Act_TanH |          | 
233 |          | lg_pre_5_6   |  0.00000 |  0.99967 | i  |  8,21, 1 | Act_TanH |          | 
234 |          | lg_pre_6_0   |  0.00000 |  0.14405 | i  |  2,22, 1 | Act_TanH |          | 
235 |          | lg_pre_6_1   |  0.00000 |  0.99514 | i  |  3,22, 1 | Act_TanH |          | 
236 |          | lg_pre_6_2   |  0.00000 | -0.35902 | i  |  4,22, 1 | Act_TanH |          | 
237 |          | lg_pre_6_3   |  0.00000 | -0.06635 | i  |  5,22, 1 | Act_TanH |          | 
238 |          | lg_pre_6_4   |  0.00000 |  0.46462 | i  |  6,22, 1 | Act_TanH |          | 
239 |          | lg_pre_6_5   |  0.00000 |  0.13195 | i  |  7,22, 1 | Act_TanH |          | 
240 |          | lg_pre_6_6   |  0.00000 |  0.93960 | i  |  8,22, 1 | Act_TanH |          | 
241 |          | lg_pre_0_0   |  0.97912 |  3.46433 | h  | 11,16, 1 | Act_TanH |          | 
242 |          | lg_pre_0_1   | -0.95350 | -1.03537 | h  | 12,16, 1 | Act_TanH |          | 
243 |          | lg_pre_0_2   | -0.99730 | -1.58591 | h  | 13,16, 1 | Act_TanH |          | 
244 |          | lg_pre_0_3   | -0.99990 | -0.01435 | h  | 14,16, 1 | Act_TanH |          | 
245 |          | lg_pre_1_0   |  0.02692 |  0.48438 | h  | 11,17, 1 | Act_TanH |          | 
246 |          | lg_pre_1_1   |  0.87941 |  0.17544 | h  | 12,17, 1 | Act_TanH |          | 
247 |          | lg_pre_1_2   | -0.55708 |  1.50346 | h  | 13,17, 1 | Act_TanH |          | 
248 |          | lg_pre_1_3   | -0.99762 |  1.19240 | h  | 14,17, 1 | Act_TanH |          | 
249 |          | lg_pre_2_0   | -0.16796 |  2.47025 | h  | 11,18, 1 | Act_TanH |          | 
250 |          | lg_pre_2_1   |  0.97853 |  0.17459 | h  | 12,18, 1 | Act_TanH |          | 
251 |          | lg_pre_2_2   |  0.74579 |  1.59121 | h  | 13,18, 1 | Act_TanH |          | 
252 |          | lg_pre_2_3   |  0.96677 |  0.77976 | h  | 14,18, 1 | Act_TanH |          | 
253 |          | lg_pre_3_0   |  0.73735 | -1.73037 | h  | 11,19, 1 | Act_TanH |          | 
254 |          | lg_pre_3_1   |  0.98991 |  1.84823 | h  | 12,19, 1 | Act_TanH |          | 
255 |          | lg_pre_3_2   | -0.59329 |  0.02814 | h  | 13,19, 1 | Act_TanH |          | 
256 |          | lg_pre_3_3   | -0.95831 |  1.30553 | h  | 14,19, 1 | Act_TanH |          | 
257 |          | lt_post_0_0  |  0.00000 | -0.67736 | i  | 25, 0, 1 | Act_TanH |          | 
258 |          | lt_post_0_1  |  0.00000 | -0.36235 | i  | 26, 0, 1 | Act_TanH |          | 
259 |          | lt_post_0_2  |  0.00000 |  0.87027 | i  | 27, 0, 1 | Act_TanH |          | 
260 |          | lt_post_0_3  |  0.00000 |  0.80405 | i  | 28, 0, 1 | Act_TanH |          | 
261 |          | lt_post_0_4  |  0.00000 |  0.09362 | i  | 29, 0, 1 | Act_TanH |          | 
262 |          | lt_post_0_5  |  0.00000 |  0.04756 | i  | 30, 0, 1 | Act_TanH |          | 
263 |          | lt_post_0_6  |  0.00000 | -0.81245 | i  | 31, 0, 1 | Act_TanH |          | 
264 |          | lt_post_0_7  |  1.00000 |  0.74823 | i  | 32, 0, 1 | Act_TanH |          | 
265 |          | lt_post_0_8  |  0.00000 | -0.07420 | i  | 33, 0, 1 | Act_TanH |          | 
266 |          | lt_post_1_0  |  0.00000 | -0.06979 | i  | 25, 1, 1 | Act_TanH |          | 
267 |          | lt_post_1_1  |  0.00000 | -0.41417 | i  | 26, 1, 1 | Act_TanH |          | 
268 |          | lt_post_1_2  |  0.00000 |  0.24349 | i  | 27, 1, 1 | Act_TanH |          | 
269 |          | lt_post_1_3  |  0.00000 | -0.63050 | i  | 28, 1, 1 | Act_TanH |          | 
270 |          | lt_post_1_4  |  0.00000 |  0.90902 | i  | 29, 1, 1 | Act_TanH |          | 
271 |          | lt_post_1_5  |  0.00000 | -0.63982 | i  | 30, 1, 1 | Act_TanH |          | 
272 |          | lt_post_1_6  |  0.00000 |  0.64180 | i  | 31, 1, 1 | Act_TanH |          | 
273 |          | lt_post_1_7  |  1.00000 |  0.44309 | i  | 32, 1, 1 | Act_TanH |          | 
274 |          | lt_post_1_8  |  0.00000 | -0.41444 | i  | 33, 1, 1 | Act_TanH |          | 
275 |          | lt_post_2_0  |  0.00000 |  0.08273 | i  | 25, 2, 1 | Act_TanH |          | 
276 |          | lt_post_2_1  |  0.00000 |  0.63904 | i  | 26, 2, 1 | Act_TanH |          | 
277 |          | lt_post_2_2  |  0.00000 |  0.02985 | i  | 27, 2, 1 | Act_TanH |          | 
278 |          | lt_post_2_3  |  0.00000 |  0.57203 | i  | 28, 2, 1 | Act_TanH |          | 
279 |          | lt_post_2_4  |  0.00000 |  0.22643 | i  | 29, 2, 1 | Act_TanH |          | 
280 |          | lt_post_2_5  |  0.00000 | -0.46549 | i  | 30, 2, 1 | Act_TanH |          | 
281 |          | lt_post_2_6  |  0.00000 | -0.66732 | i  | 31, 2, 1 | Act_TanH |          | 
282 |          | lt_post_2_7  |  1.00000 | -0.84867 | i  | 32, 2, 1 | Act_TanH |          | 
283 |          | lt_post_2_8  |  0.00000 | -0.45114 | i  | 33, 2, 1 | Act_TanH |          | 
284 |          | lt_post_3_0  |  0.00000 | -0.85620 | i  | 25, 3, 1 | Act_TanH |          | 
285 |          | lt_post_3_1  |  0.00000 | -0.39199 | i  | 26, 3, 1 | Act_TanH |          | 
286 |          | lt_post_3_2  |  0.00000 |  0.99623 | i  | 27, 3, 1 | Act_TanH |          | 
287 |          | lt_post_3_3  |  0.00000 | -0.38172 | i  | 28, 3, 1 | Act_TanH |          | 
288 |          | lt_post_3_4  |  0.00000 |  0.33553 | i  | 29, 3, 1 | Act_TanH |          | 
289 |          | lt_post_3_5  |  0.00000 |  0.09184 | i  | 30, 3, 1 | Act_TanH |          | 
290 |          | lt_post_3_6  |  0.00000 |  0.69607 | i  | 31, 3, 1 | Act_TanH |          | 
291 |          | lt_post_3_7  |  1.00000 | -0.09422 | i  | 32, 3, 1 | Act_TanH |          | 
292 |          | lt_post_3_8  |  0.00000 |  0.58426 | i  | 33, 3, 1 | Act_TanH |          | 
293 |          | lt_post_4_0  |  0.00000 |  0.96812 | i  | 25, 4, 1 | Act_TanH |          | 
294 |          | lt_post_4_1  |  0.00000 |  0.17314 | i  | 26, 4, 1 | Act_TanH |          | 
295 |          | lt_post_4_2  |  0.00000 | -0.17996 | i  | 27, 4, 1 | Act_TanH |          | 
296 |          | lt_post_4_3  |  0.00000 | -0.42642 | i  | 28, 4, 1 | Act_TanH |          | 
297 |          | lt_post_4_4  |  0.00000 |  0.61249 | i  | 29, 4, 1 | Act_TanH |          | 
298 |          | lt_post_4_5  |  0.00000 | -0.65060 | i  | 30, 4, 1 | Act_TanH |          | 
299 |          | lt_post_4_6  |  1.00000 |  0.05006 | i  | 31, 4, 1 | Act_TanH |          | 
300 |          | lt_post_4_7  |  0.00000 | -0.84409 | i  | 32, 4, 1 | Act_TanH |          | 
301 |          | lt_post_4_8  |  0.00000 |  0.09384 | i  | 33, 4, 1 | Act_TanH |          | 
302 |          | lt_post_5_0  |  0.00000 |  0.91907 | i  | 25, 5, 1 | Act_TanH |          | 
303 |          | lt_post_5_1  |  0.00000 |  0.19589 | i  | 26, 5, 1 | Act_TanH |          | 
304 |          | lt_post_5_2  |  0.00000 | -0.61487 | i  | 27, 5, 1 | Act_TanH |          | 
305 |          | lt_post_5_3  |  0.00000 |  0.16994 | i  | 28, 5, 1 | Act_TanH |          | 
306 |          | lt_post_5_4  |  0.00000 | -0.09142 | i  | 29, 5, 1 | Act_TanH |          | 
307 |          | lt_post_5_5  |  0.00000 |  0.47012 | i  | 30, 5, 1 | Act_TanH |          | 
308 |          | lt_post_5_6  |  1.00000 | -0.01529 | i  | 31, 5, 1 | Act_TanH |          | 
309 |          | lt_post_5_7  |  0.00000 |  0.62963 | i  | 32, 5, 1 | Act_TanH |          | 
310 |          | lt_post_5_8  |  0.00000 |  0.32201 | i  | 33, 5, 1 | Act_TanH |          | 
311 |          | lt_post_6_0  |  0.00000 | -0.72802 | i  | 25, 6, 1 | Act_TanH |          | 
312 |          | lt_post_6_1  |  0.00000 |  0.69033 | i  | 26, 6, 1 | Act_TanH |          | 
313 |          | lt_post_6_2  |  0.00000 |  0.88851 | i  | 27, 6, 1 | Act_TanH |          | 
314 |          | lt_post_6_3  |  0.00000 |  0.87977 | i  | 28, 6, 1 | Act_TanH |          | 
315 |          | lt_post_6_4  |  0.00000 |  0.66969 | i  | 29, 6, 1 | Act_TanH |          | 
316 |          | lt_post_6_5  |  0.00000 |  0.19964 | i  | 30, 6, 1 | Act_TanH |          | 
317 |          | lt_post_6_6  |  1.00000 |  0.03287 | i  | 31, 6, 1 | Act_TanH |          | 
318 |          | lt_post_6_7  |  0.00000 |  0.30767 | i  | 32, 6, 1 | Act_TanH |          | 
319 |          | lt_post_6_8  |  0.00000 | -0.25768 | i  | 33, 6, 1 | Act_TanH |          | 
320 |          | lg_post_0_0  |  0.96581 |  1.25800 | h  | 29, 8, 1 | Act_TanH |          | 
321 |          | lg_post_0_1  |  0.45288 | -0.75021 | h  | 30, 8, 1 | Act_TanH |          | 
322 |          | lg_post_0_2  |  0.92500 |  0.19714 | h  | 31, 8, 1 | Act_TanH |          | 
323 |          | lg_post_0_3  |  0.24254 |  1.12648 | h  | 32, 8, 1 | Act_TanH |          | 
324 |          | lg_post_0_4  | -0.39835 |  1.87966 | h  | 33, 8, 1 | Act_TanH |          | 
325 |          | lg_post_1_0  | -0.45185 |  1.12852 | h  | 29, 9, 1 | Act_TanH |          | 
326 |          | lg_post_1_1  | -0.97535 |  0.78485 | h  | 30, 9, 1 | Act_TanH |          | 
327 |          | lg_post_1_2  | -0.99449 | -1.68982 | h  | 31, 9, 1 | Act_TanH |          | 
328 |          | lg_post_1_3  | -0.98925 |  0.37289 | h  | 32, 9, 1 | Act_TanH |          | 
329 |          | lg_post_1_4  |  0.97941 |  0.60620 | h  | 33, 9, 1 | Act_TanH |          | 
330 |          | lg_post_2_0  | -0.97013 |  1.84203 | h  | 29,10, 1 | Act_TanH |          | 
331 |          | lg_post_2_1  |  0.20147 | -1.33399 | h  | 30,10, 1 | Act_TanH |          | 
332 |          | lg_post_2_2  |  0.99369 |  1.34661 | h  | 31,10, 1 | Act_TanH |          | 
333 |          | lg_post_2_3  | -0.33365 | -2.08241 | h  | 32,10, 1 | Act_TanH |          | 
334 |          | lg_post_2_4  | -0.94034 | -0.42326 | h  | 33,10, 1 | Act_TanH |          | 
335 |          | lg_post_3_0  | -0.90260 | -1.21563 | h  | 29,11, 1 | Act_TanH |          | 
336 |          | lg_post_3_1  | -0.46192 | -1.72324 | h  | 30,11, 1 | Act_TanH |          | 
337 |          | lg_post_3_2  |  0.92896 |  1.45226 | h  | 31,11, 1 | Act_TanH |          | 
338 |          | lg_post_3_3  |  0.67957 | -0.79060 | h  | 32,11, 1 | Act_TanH |          | 
339 |          | lg_post_3_4  | -0.99418 | -1.20391 | h  | 33,11, 1 | Act_TanH |          | 
340 |          | lt_pre_0_0   |  0.00000 |  0.34498 | i  | 29,16, 1 | Act_TanH |          | 
341 |          | lt_pre_0_1   |  0.00000 |  0.59899 | i  | 30,16, 1 | Act_TanH |          | 
342 |          | lt_pre_0_2   |  1.00000 |  0.29158 | i  | 31,16, 1 | Act_TanH |          | 
343 |          | lt_pre_0_3   |  0.00000 | -0.52293 | i  | 32,16, 1 | Act_TanH |          | 
344 |          | lt_pre_0_4   |  0.00000 | -0.15516 | i  | 33,16, 1 | Act_TanH |          | 
345 |          | lt_pre_1_0   |  0.00000 |  0.92510 | i  | 29,17, 1 | Act_TanH |          | 
346 |          | lt_pre_1_1   |  0.00000 | -0.23241 | i  | 30,17, 1 | Act_TanH |          | 
347 |          | lt_pre_1_2   |  1.00000 | -0.92624 | i  | 31,17, 1 | Act_TanH |          | 
348 |          | lt_pre_1_3   |  0.00000 | -0.14263 | i  | 32,17, 1 | Act_TanH |          | 
349 |          | lt_pre_1_4   |  0.00000 |  0.79411 | i  | 33,17, 1 | Act_TanH |          | 
350 |          | lt_pre_2_0   |  0.00000 | -0.29387 | i  | 29,18, 1 | Act_TanH |          | 
351 |          | lt_pre_2_1   |  0.00000 | -0.55080 | i  | 30,18, 1 | Act_TanH |          | 
352 |          | lt_pre_2_2   |  1.00000 | -0.24898 | i  | 31,18, 1 | Act_TanH |          | 
353 |          | lt_pre_2_3   |  0.00000 |  0.57274 | i  | 32,18, 1 | Act_TanH |          | 
354 |          | lt_pre_2_4   |  0.00000 |  0.17439 | i  | 33,18, 1 | Act_TanH |          | 
355 |          | lt_pre_3_0   |  0.00000 |  0.47305 | i  | 29,19, 1 | Act_TanH |          | 
356 |          | lt_pre_3_1   |  0.00000 | -0.46819 | i  | 30,19, 1 | Act_TanH |          | 
357 |          | lt_pre_3_2   |  0.00000 |  0.36238 | i  | 31,19, 1 | Act_TanH |          | 
358 |          | lt_pre_3_3   |  0.00000 | -0.42063 | i  | 32,19, 1 | Act_TanH |          | 
359 |          | lt_pre_3_4   |  0.00000 |  0.81304 | i  | 33,19, 1 | Act_TanH |          | 
360 |          | lt_pre_4_0   |  0.00000 |  0.11356 | i  | 29,20, 1 | Act_TanH |          | 
361 |          | lt_pre_4_1   |  0.00000 |  0.03990 | i  | 30,20, 1 | Act_TanH |          | 
362 |          | lt_pre_4_2   |  0.00000 | -0.56497 | i  | 31,20, 1 | Act_TanH |          | 
363 |          | lt_pre_4_3   |  0.00000 | -0.19519 | i  | 32,20, 1 | Act_TanH |          | 
364 |          | lt_pre_4_4   |  0.00000 |  0.66146 | i  | 33,20, 1 | Act_TanH |          | 
365 |          | lt_pre_5_0   |  0.00000 |  0.73903 | i  | 29,21, 1 | Act_TanH |          | 
366 |          | lt_pre_5_1   |  0.00000 |  0.03267 | i  | 30,21, 1 | Act_TanH |          | 
367 |          | lt_pre_5_2   |  0.00000 | -0.14976 | i  | 31,21, 1 | Act_TanH |          | 
368 |          | lt_pre_5_3   |  0.00000 | -0.18999 | i  | 32,21, 1 | Act_TanH |          | 
369 |          | lt_pre_5_4   |  0.00000 |  0.21949 | i  | 33,21, 1 | Act_TanH |          | 
370 |          | lt_pre_6_0   |  0.00000 | -0.86287 | i  | 29,22, 1 | Act_TanH |          | 
371 |          | lt_pre_6_1   |  0.00000 | -0.11116 | i  | 30,22, 1 | Act_TanH |          | 
372 |          | lt_pre_6_2   |  0.00000 |  0.99815 | i  | 31,22, 1 | Act_TanH |          | 
373 |          | lt_pre_6_3   |  0.00000 | -0.96563 | i  | 32,22, 1 | Act_TanH |          | 
374 |          | lt_pre_6_4   |  0.00000 | -0.75964 | i  | 33,22, 1 | Act_TanH |          | 
375 |          | lg_post_0_0  |  0.42563 | -0.47592 | h  | 25,19, 1 | Act_TanH |          | 
376 |          | lg_post_0_1  |  0.47693 |  0.11182 | h  | 26,19, 1 | Act_TanH |          | 
377 |          | lg_post_0_2  |  0.93162 |  0.69721 | h  | 27,19, 1 | Act_TanH |          | 
378 |          | lg_post_1_0  | -0.60065 |  0.06413 | h  | 25,20, 1 | Act_TanH |          | 
379 |          | lg_post_1_1  | -0.97596 | -0.14498 | h  | 26,20, 1 | Act_TanH |          | 
380 |          | lg_post_1_2  |  0.30353 |  1.09344 | h  | 27,20, 1 | Act_TanH |          | 
381 |          | lg_post_2_0  | -0.99666 |  0.94591 | h  | 25,21, 1 | Act_TanH |          | 
382 |          | lg_post_2_1  |  0.88819 | -0.78480 | h  | 26,21, 1 | Act_TanH |          | 
383 |          | lg_post_2_2  | -0.50971 |  0.04266 | h  | 27,21, 1 | Act_TanH |          | 
384 |          | lg_post_3_0  |  0.62658 | -0.49630 | h  | 25,22, 1 | Act_TanH |          | 
385 |          | lg_post_3_1  | -0.36152 | -0.00165 | h  | 26,22, 1 | Act_TanH |          | 
386 |          | lg_post_3_2  |  0.57585 |  0.19487 | h  | 27,22, 1 | Act_TanH |          | 
387 |          | OUTPUT       |  0.00035 | -1.08731 | o  | 18,12, 1 |||
388 |          | noName       | 7805.00000 | -0.86261 | i  |  6,13, 1 |||
389 |          | noName       | 7820.00000 | -0.65436 | i  |  7,13, 1 |||
----|----------|--------------|----------|----------|----|----------|----------|----------|-------


connection definition section :

target | site | source:weight
-------|------|----------------------------------------------------------------------------------------------------------------
   148 |      | 147: 1.02236, 146:-0.20436, 145:-0.32130, 144: 1.16027, 143: 0.59281, 142:-0.66601, 141:-0.32293, 140: 1.89032,
                139:-1.28396, 138: 1.22620, 137: 1.95407, 136:-0.58730, 135: 1.52610, 134: 0.04383, 133: 0.23732, 132: 0.38743,
                131:-0.92901, 130: 0.93816, 129: 0.26870, 128: 0.25082, 127:-0.52088, 126:-0.21330, 125:-0.22115, 124:-0.52665,
                123: 0.92280, 122:-0.56038, 121: 0.01847, 120: 0.85811, 119: 0.05680, 118:-0.64482, 117:-1.07859, 116:-0.67027,
                115:-1.04635, 114: 0.07945, 113: 1.46528, 112: 0.66209, 111: 0.21862, 110: 0.45738, 109: 0.14628, 108:-0.48454,
                107: 0.71114, 106:-0.33275, 105: 0.59756, 104:-0.82379, 103: 0.24504, 102: 0.76076, 101:-0.83084, 100:-1.01603,
                 99:-1.03216,  98: 0.41826,  97:-0.60674,  96:-1.40075,  95: 0.67983,  94: 0.22515,  93:-0.88385,  92: 0.47208,
                 91:-0.25759,  90:-0.74274,  89: 0.46579,  88:-0.69177,  87: 0.61941,  86:-0.19380,  85: 0.90043,  84: 0.76987,
                 83: 0.53650,  82: 0.07153,  81:-0.65919,  80: 0.44804,  79: 0.04220,  78:-0.80324,  77: 0.75756,  76: 0.35687,
                 75:-0.07066,  74: 1.49369,  73:-0.04012,  72: 0.58584,  71: 0.74057,  70:-0.56003,  69:-0.17632,  68:-0.25329,
                 67:-0.28143,  66:-0.90360,  65:-0.42436,  64: 0.04570,  63: 0.40580,  62: 0.02524,  61: 0.71398,  60: 0.07758,
                 59:-0.31512,  58: 0.07154,  57: 0.94738,  56: 0.47876,  55: 0.24196,  54:-0.32041,  53: 0.71584,  52:-0.78977,
                 51:-0.98373,  50:-0.32866,  49:-0.78946,  48: 0.91226,  47:-0.33826,  46: 0.81068,  45:-0.27406,  44: 0.43017,
                 43: 0.13328,  42: 0.88663,  41: 0.64741,  40: 0.05847,  39: 0.49803,  38: 0.17531,  37: 0.03138,  36: 1.53140,
                 35: 0.49210,  34:-0.76587,  33: 0.65908,  32:-0.01488,  31: 1.29124,  30:-1.21884,  29: 1.28453,  28: 0.15839,
                 27:-0.40710,  26: 0.31549,  25: 0.06892,  24:-0.15301,  23:-0.10172,  22: 0.89212,  21: 0.15367,  20:-0.75530,
                 19: 0.10090,  18: 0.37859,  17: 1.61305,  16:-0.39862,  15:-0.12899,  14: 0.57833,  13: 0.47005,  12:-1.47705,
                 11:-1.38360,  10:-1.13169,   9:-0.02345,   8: 1.99193,   7:-0.85188,   6:-0.59119,   5: 0.34985,   4: 0.62639,
                  3:-0.11183,   2: 0.09143,   1: 0.09332
   149 |      | 147:-1.00534, 146: 0.79354, 145: 0.75247, 144:-0.40661, 143: 0.40334, 142:-0.59892, 141:-0.45518, 140:-0.69630,
                139:-0.12956, 138:-1.19622, 137:-0.13219, 136:-0.99445, 135:-0.05479, 134:-0.28800, 133: 0.88879, 132:-0.40078,
                131:-0.66604, 130: 0.89429, 129: 0.11326, 128: 0.13097, 127: 0.90411, 126: 0.54719, 125: 0.30311, 124: 0.60943,
                123: 0.46423, 122: 1.05899, 121:-0.78121, 120:-1.10835, 119: 0.39177, 118:-0.59620, 117:-0.78676, 116:-1.01346,
                115:-0.67417, 114: 0.43584, 113: 0.23317, 112:-0.86165, 111:-0.68914, 110:-0.23765, 109:-0.27677, 108: 0.53998,
                107:-0.13492, 106: 0.59532, 105: 0.62126, 104:-1.08211, 103:-0.82272, 102: 0.12917, 101: 0.89598, 100:-0.26679,
                 99: 0.98267,  98:-0.73228,  97:-0.14665,  96: 0.64608,  95:-1.55966,  94:-0.21379,  93: 0.80613,  92:-0.10848,
                 91:-0.20281,  90:-0.32425,  89: 1.00788,  88:-0.44291,  87: 1.06721,  86:-0.94406,  85: 0.05457,  84:-0.61268,
                 83: 0.90147,  82: 0.40542,  81: 0.06890,  80:-0.51201,  79:-0.22167,  78:-0.86583,  77:-0.17330,  76: 0.04172,
                 75:-0.73096,  74: 0.86130,  73:-1.25001,  72: 0.00181,  71:-0.25510,  70:-0.25665,  69:-0.40130,  68:-1.00606,
                 67: 0.48377,  66:-0.17334,  65:-0.42656,  64: 0.04608,  63: 0.75453,  62: 0.68435,  61:-0.71376,  60: 1.01867,
                 59: 1.05129,  58:-0.59255,  57: 0.16498,  56:-0.05868,  55:-0.01532,  54: 1.12554,  53: 1.35937,  52: 0.09136,
                 51: 0.87286,  50:-0.97246,  49:-0.58046,  48: 0.83986,  47:-0.66985,  46:-0.07313,  45: 0.20011,  44:-0.63023,
                 43: 0.66566,  42:-0.25533,  41: 0.04437,  40:-0.83658,  39: 0.13677,  38: 0.22806,  37:-0.01359,  36: 0.62872,
                 35:-1.18276,  34: 1.08584,  33:-1.20744,  32:-0.53530,  31: 1.07097,  30: 1.33667,  29:-1.28100,  28:-1.05120,
                 27:-0.18464,  26:-0.63758,  25:-0.19708,  24:-0.20415,  23:-0.84061,  22:-0.46730,  21:-0.94876,  20:-0.98276,
                 19:-0.05504,  18: 0.09626,  17: 0.09615,  16: 0.93525,  15:-0.74540,  14: 0.54977,  13:-0.72258,  12:-0.51658,
                 11:-0.25418,  10:-0.71870,   9: 0.06204,   8: 0.30703,   7: 1.35091,   6: 0.42168,   5: 0.48664,   4:-0.91761,
                  3: 0.64382,   2: 0.55017,   1: 0.68464
   150 |      | 147: 0.78646, 146:-0.73100, 145:-0.76119, 144: 0.85987, 143: 0.40424, 142: 1.05379, 141: 0.24459, 140: 1.14379,
                139: 0.75642, 138:-1.90922, 137:-1.00191, 136: 2.38518, 135:-1.27331, 134:-0.59110, 133: 0.03953, 132: 0.07282,
                131: 0.32954, 130: 0.53788, 129:-0.49783, 128: 0.20720, 127: 0.76882, 126:-0.28181, 125: 0.31947, 124:-0.66965,
                123: 0.93180, 122: 0.95889, 121:-0.73808, 120:-0.84930, 119: 0.58014, 118: 0.83131, 117:-1.50878, 116:-0.05883,
                115: 0.71319, 114: 1.21536, 113: 0.70131, 112:-0.21327, 111: 0.78144, 110: 0.18939, 109: 0.24173, 108: 0.21703,
                107:-0.71839, 106: 0.97373, 105:-0.73329, 104: 0.67654, 103:-0.54137, 102: 0.58265, 101:-0.64849, 100: 0.66286,
                 99: 0.87355,  98:-0.44256,  97: 0.01881,  96: 0.14586,  95:-0.83703,  94:-1.58541,  93: 2.40607,  92: 0.99367,
                 91:-0.20899,  90: 0.91101,  89:-0.60752,  88: 0.23070,  87: 0.86947,  86: 0.63630,  85: 0.21291,  84:-0.09762,
                 83: 0.91734,  82: 0.79902,  81: 0.56492,  80: 1.07368,  79: 0.53080,  78:-0.58335,  77:-0.28336,  76:-1.13730,
                 75: 0.05372,  74:-0.36660,  73:-0.70271,  72: 0.11427,  71:-1.55186,  70: 0.26400,  69:-0.28426,  68: 0.19786,
                 67:-0.24124,  66: 0.79712,  65: 0.74042,  64:-0.53431,  63: 0.64428,  62: 0.86564,  61: 0.59703,  60: 0.37811,
                 59:-0.61681,  58: 0.69828,  57:-0.12988,  56:-0.15242,  55: 0.61349,  54:-0.21436,  53: 2.25664,  52:-1.20328,
                 51: 0.05067,  50: 1.13846,  49: 0.09364,  48: 0.49486,  47:-0.49356,  46:-0.59946,  45:-0.15234,  44: 0.99099,
                 43:-0.20285,  42: 0.25730,  41: 0.73597,  40:-0.63129,  39: 0.57714,  38: 0.11176,  37: 0.39535,  36: 0.40119,
                 35: 1.10984,  34:-1.10574,  33:-0.46953,  32: 0.80740,  31: 0.44840,  30:-1.19875,  29: 0.54311,  28:-0.11012,
                 27: 0.93299,  26: 0.53772,  25:-0.10478,  24: 0.01065,  23:-0.51332,  22:-0.31490,  21: 0.56763,  20: 0.59271,
                 19: 0.17977,  18:-0.33715,  17: 0.59412,  16:-0.05665,  15:-0.49573,  14:-0.56444,  13:-0.31773,  12:-0.76758,
                 11: 0.46278,  10: 1.32718,   9:-1.47693,   8: 0.86053,   7: 0.18764,   6: 0.33750,   5: 0.79084,   4:-0.22080,
                  3:-0.24892,   2:-0.25185,   1:-0.19707
   151 |      | 147: 0.38436, 146: 0.92922, 145: 0.05148, 144: 0.27215, 143:-0.09880, 142:-0.82269, 141:-0.31974, 140: 0.80970,
                139:-0.33877, 138: 1.23529, 137: 0.79563, 136:-0.89964, 135:-0.08764, 134: 0.48477, 133:-0.38858, 132: 0.78322,
                131: 0.57545, 130: 0.42196, 129: 0.01189, 128: 0.15993, 127: 0.90267, 126:-0.65790, 125:-0.28178, 124:-0.88078,
                123:-0.75073, 122: 0.02688, 121: 0.32177, 120:-0.12962, 119: 1.14926, 118:-1.23728, 117:-0.13709, 116:-0.27094,
                115:-0.31993, 114: 1.38595, 113:-0.65675, 112:-0.74957, 111:-0.28786, 110:-0.11522, 109:-0.24024, 108: 0.52066,
                107: 0.53048, 106: 0.36333, 105: 0.27181, 104:-0.41700, 103: 0.34283, 102:-0.02573, 101: 0.10598, 100: 0.14858,
                 99: 0.91411,  98: 0.64305,  97: 0.35038,  96: 0.71375,  95: 0.42058,  94:-0.51675,  93:-0.07288,  92: 0.02195,
                 91:-0.33690,  90:-0.20959,  89: 0.60173,  88:-0.76468,  87:-0.67682,  86:-0.65533,  85:-0.12264,  84:-0.72260,
                 83:-0.76324,  82:-0.20521,  81:-0.45626,  80: 1.13211,  79:-0.70156,  78: 0.11639,  77:-0.06551,  76:-0.94809,
                 75: 0.07632,  74:-0.58640,  73:-0.18557,  72: 0.79709,  71:-0.33175,  70: 0.20246,  69:-1.05158,  68:-0.77369,
                 67:-0.65930,  66:-0.70793,  65: 0.08328,  64:-0.53437,  63:-0.62792,  62:-0.72884,  61:-0.63177,  60: 0.47773,
                 59: 0.63800,  58:-0.83174,  57: 0.23435,  56:-1.02635,  55: 0.65563,  54: 0.37585,  53: 0.00762,  52: 0.63842,
                 51: 0.41162,  50: 0.42337,  49:-0.14730,  48:-0.60431,  47:-0.57296,  46: 0.82210,  45: 0.07890,  44:-0.31927,
                 43: 0.27147,  42: 0.00597,  41:-0.83305,  40:-0.83570,  39:-0.38158,  38: 0.33749,  37: 0.98299,  36:-0.77493,
                 35: 0.28156,  34: 0.72445,  33:-0.22440,  32:-1.47856,  31:-0.20738,  30: 0.62596,  29:-0.33047,  28:-0.47352,
                 27: 0.76033,  26: 0.64162,  25:-0.67555,  24:-0.52488,  23:-0.94165,  22: 0.50919,  21: 0.79702,  20:-0.08314,
                 19: 0.21474,  18: 0.74318,  17:-0.57495,  16:-0.48900,  15: 0.54268,  14: 0.54783,  13: 0.49526,  12: 0.34807,
                 11:-0.77674,  10:-0.37249,   9:-1.24195,   8:-0.78234,   7: 0.78726,   6:-0.32519,   5:-0.29848,   4:-0.32837,
                  3: 0.50763,   2:-0.38729,   1:-0.95104
   152 |      | 147: 0.64628, 146: 0.56839, 145: 0.96115, 144:-0.76232, 143: 0.96199, 142: 0.05783, 141:-0.94435, 140: 0.86167,
                139:-0.18362, 138:-0.24399, 137:-0.86344, 136:-0.10181, 135: 0.99378, 134:-0.02340, 133:-0.27659, 132: 0.38447,
                131:-0.66429, 130:-0.31276, 129:-0.89102, 128:-0.67701, 127:-0.93586, 126:-0.52889, 125: 0.98398, 124: 0.32712,
                123: 0.88575, 122: 1.05634, 121: 0.55049, 120: 0.20033, 119: 0.94933, 118: 1.28071, 117:-0.81008, 116: 0.63903,
                115: 0.06730, 114: 0.50968, 113: 0.83955, 112: 0.78270, 111:-0.04050, 110:-0.01267, 109:-0.18116, 108:-0.92340,
                107:-0.64388, 106: 0.92057, 105:-0.66688, 104:-0.51408, 103:-0.46147, 102: 0.27215, 101: 0.64081, 100: 0.95658,
                 99: 0.03147,  98:-0.80233,  97:-0.72088,  96: 0.25133,  95: 0.86352,  94: 1.00438,  93:-0.13191,  92: 0.78277,
                 91:-0.61364,  90: 0.35944,  89: 0.78431,  88: 0.35285,  87: 0.81663,  86: 0.36888,  85: 0.18865,  84: 0.24237,
                 83:-0.76289,  82: 0.95622,  81:-0.09630,  80: 0.34255,  79:-0.85307,  78: 0.28986,  77: 0.76608,  76: 0.74084,
                 75:-0.51595,  74:-1.66140,  73: 0.38166,  72:-0.38278,  71: 0.59667,  70:-0.48453,  69:-0.47757,  68: 0.49580,
                 67: 0.36035,  66:-0.96588,  65: 0.92341,  64: 0.35128,  63:-0.34424,  62: 0.23646,  61: 0.68769,  60:-0.00315,
                 59:-0.43925,  58: 0.77080,  57:-0.97765,  56: 0.90447,  55:-0.27974,  54:-0.56865,  53: 0.81620,  52: 0.99826,
                 51:-0.33173,  50:-0.50311,  49:-0.72192,  48:-0.99183,  47: 0.10046,  46:-0.53070,  45:-0.53857,  44: 0.51842,
                 43:-0.88774,  42: 0.58175,  41:-0.84799,  40:-0.05986,  39: 0.64624,  38:-0.74459,  37: 0.24853,  36:-0.70044,
                 35: 0.53947,  34:-0.88753,  33:-0.43577,  32: 1.27013,  31:-0.48446,  30: 1.35331,  29: 0.54764,  28:-0.61969,
                 27: 0.75897,  26:-0.73924,  25: 0.21801,  24: 0.30990,  23:-0.18916,  22: 0.76192,  21:-0.80152,  20: 0.23917,
                 19: 0.00091,  18:-0.49155,  17:-0.34264,  16:-0.75425,  15:-0.29887,  14:-0.32116,  13: 0.39620,  12: 0.15585,
                 11: 0.78552,  10: 0.12394,   9:-1.62958,   8: 0.80104,   7:-0.87993,   6:-0.68382,   5:-0.28057,   4:-0.97972,
                  3:-0.37697,   2: 0.00827,   1:-0.72060
   153 |      | 147: 0.37000, 146: 0.54477, 145:-0.37382, 144: 0.78821, 143: 0.94160, 142:-0.14131, 141: 0.75318, 140: 0.19299,
                139: 0.42645, 138:-0.11785, 137: 0.77581, 136:-1.33155, 135: 0.36803, 134: 0.12885, 133:-0.31767, 132: 0.05061,
                131: 1.00694, 130: 0.06169, 129:-0.14938, 128: 0.13049, 127:-0.35102, 126: 0.38474, 125: 0.78026, 124:-0.42869,
                123:-0.13058, 122: 0.75527, 121: 0.52901, 120:-0.43486, 119:-0.80099, 118:-0.47433, 117:-0.18689, 116:-0.84130,
                115:-0.18566, 114:-0.04893, 113:-0.04845, 112: 0.36029, 111:-0.04711, 110:-0.02281, 109:-0.45423, 108:-0.02223,
                107: 0.54215, 106: 0.13801, 105: 0.12690, 104: 0.71726, 103: 0.73972, 102: 0.59037, 101: 0.98332, 100: 0.00593,
                 99:-0.97429,  98: 0.04651,  97: 0.37521,  96: 0.11195,  95:-0.42283,  94:-0.03775,  93:-0.06022,  92: 0.51682,
                 91:-0.50574,  90: 0.34174,  89: 0.75124,  88: 0.96593,  87: 0.62558,  86:-0.70667,  85: 0.67928,  84:-0.15963,
                 83: 0.28457,  82: 0.67143,  81:-0.20296,  80:-0.08578,  79:-0.20379,  78:-0.34658,  77: 0.48767,  76: 0.95088,
                 75: 1.01336,  74:-0.55380,  73: 0.87133,  72:-0.50737,  71: 0.81985,  70:-0.84010,  69: 0.01242,  68: 0.58804,
                 67:-0.80685,  66: 0.74288,  65: 0.98002,  64:-0.47374,  63:-0.70455,  62: 0.78543,  61: 0.50527,  60: 0.28534,
                 59: 0.24989,  58:-1.04074,  57: 0.61552,  56: 0.67224,  55:-0.62788,  54:-0.16622,  53:-0.00823,  52:-0.08210,
                 51:-0.72437,  50: 1.02020,  49: 0.46567,  48: 0.14547,  47:-0.84420,  46:-0.68735,  45: 0.73798,  44:-0.63156,
                 43:-0.17928,  42: 0.56073,  41: 0.34619,  40: 0.66062,  39:-0.28564,  38:-0.71304,  37:-0.85800,  36: 0.89697,
                 35:-0.71824,  34:-0.44621,  33: 1.02983,  32: 0.22674,  31:-0.33189,  30:-0.88269,  29: 0.74562,  28: 0.10185,
                 27:-0.19019,  26: 0.56537,  25:-0.03823,  24: 0.85575,  23:-0.64567,  22:-0.05341,  21:-0.43828,  20: 0.37233,
                 19:-0.30096,  18:-0.84794,  17: 0.64876,  16:-0.42684,  15:-0.03695,  14:-0.13144,  13:-0.67146,  12:-0.93152,
                 11:-0.01163,  10: 0.99065,   9: 0.70137,   8:-0.79399,   7: 0.20905,   6: 0.84642,   5: 0.20071,   4: 0.65553,
                  3: 0.27796,   2:-0.83860,   1: 0.93870
   154 |      | 147:-0.47788, 146:-0.59042, 145:-1.04002, 144:-0.82799, 143:-0.80726, 142:-1.67489, 141: 0.80207, 140:-1.62554,
                139:-0.61299, 138: 0.95975, 137:-0.93557, 136:-1.54150, 135: 0.42816, 134: 1.88828, 133:-0.99842, 132: 0.61784,
                131: 0.77259, 130:-0.17202, 129:-0.10993, 128:-0.56897, 127:-0.29498, 126:-1.02286, 125:-0.88267, 124: 0.22395,
                123: 0.12187, 122: 0.28151, 121: 0.56597, 120: 0.09921, 119:-0.24473, 118:-0.85967, 117:-0.95222, 116:-1.78763,
                115: 0.73278, 114: 1.74854, 113:-1.10133, 112: 0.57141, 111: 0.08114, 110:-0.27140, 109: 0.62704, 108: 0.57020,
                107:-0.31362, 106:-0.25698, 105:-0.02517, 104: 0.63815, 103:-0.18919, 102: 0.20974, 101: 0.95794, 100:-1.23844,
                 99: 0.93629,  98:-0.82743,  97:-0.49418,  96:-0.60092,  95:-0.39667,  94: 0.66627,  93:-1.44425,  92: 0.19731,
                 91:-1.04038,  90: 0.93152,  89: 0.69651,  88: 0.66652,  87:-0.46890,  86: 0.57603,  85:-0.51194,  84: 0.71291,
                 83:-0.38279,  82: 0.65066,  81: 0.02145,  80:-0.26312,  79: 0.25217,  78: 0.64177,  77:-0.90912,  76:-0.25360,
                 75:-0.06842,  74:-1.37046,  73:-0.08677,  72:-0.64646,  71:-0.93922,  70:-0.27922,  69: 0.11443,  68:-0.17247,
                 67:-1.06330,  66:-0.89403,  65:-0.98120,  64:-0.79530,  63:-1.03559,  62:-0.07226,  61: 0.58370,  60: 0.64085,
                 59: 0.28676,  58: 0.34401,  57:-0.12625,  56:-0.73966,  55: 0.69294,  54: 1.42104,  53: 0.27586,  52: 1.11942,
                 51: 0.18944,  50: 0.95044,  49:-0.38802,  48: 0.79512,  47:-0.92790,  46:-0.84698,  45: 0.85917,  44: 0.12677,
                 43: 0.39743,  42:-0.88649,  41: 0.10636,  40: 0.65128,  39: 0.55893,  38: 1.03202,  37:-0.93150,  36: 0.59761,
                 35:-0.01947,  34:-1.03151,  33: 1.40932,  32:-0.80486,  31: 0.46145,  30: 1.27431,  29: 0.00504,  28:-0.34226,
                 27: 0.22096,  26: 0.73613,  25: 0.84201,  24: 0.85639,  23:-0.13624,  22:-0.01761,  21:-0.55412,  20:-0.80127,
                 19: 0.51406,  18: 0.12570,  17:-0.84128,  16:-0.11721,  15: 0.08515,  14: 1.62885,  13: 0.35413,  12:-0.19409,
                 11: 0.12350,  10: 0.87511,   9:-0.82088,   8:-0.81323,   7:-0.33849,   6: 0.40107,   5:-0.71776,   4: 0.10391,
                  3: 0.75397,   2:-0.42897,   1: 0.14197
   155 |      | 147:-0.66999, 146:-0.71230, 145: 0.14310, 144:-0.12017, 143: 0.17710, 142:-0.36476, 141:-0.72003, 140: 0.20046,
                139: 0.17110, 138: 1.22519, 137:-1.38986, 136: 0.04825, 135:-1.48335, 134:-1.02896, 133: 0.82237, 132:-0.25890,
                131:-0.12541, 130:-0.85040, 129: 0.13077, 128:-0.58814, 127: 0.55272, 126: 0.22837, 125:-0.90597, 124: 0.75257,
                123:-0.42415, 122: 0.48820, 121:-1.17186, 120: 0.57343, 119: 0.06114, 118:-0.52686, 117:-0.19099, 116:-0.78909,
                115: 0.67715, 114: 1.23762, 113: 0.32454, 112:-0.28852, 111:-0.94502, 110:-0.19881, 109: 0.57445, 108:-0.75852,
                107: 0.59220, 106: 0.80798, 105:-0.34231, 104:-0.45867, 103: 0.53664, 102:-0.68989, 101:-1.11769, 100: 0.23676,
                 99: 0.69416,  98: 0.27825,  97:-0.62032,  96:-0.16756,  95: 0.89334,  94: 1.16134,  93:-0.21401,  92:-0.51554,
                 91: 1.13378,  90:-1.02323,  89: 0.46432,  88:-0.13891,  87: 0.12650,  86: 0.60079,  85: 0.09568,  84:-0.23205,
                 83:-0.41937,  82: 0.07968,  81: 0.35446,  80: 0.53526,  79: 0.51143,  78: 0.50948,  77:-0.29606,  76: 0.78058,
                 75: 0.85180,  74:-0.77308,  73: 0.25747,  72: 0.79946,  71:-0.50656,  70:-0.10931,  69:-0.64886,  68: 0.58487,
                 67: 0.43083,  66: 0.22756,  65:-0.88837,  64:-0.60684,  63:-0.55946,  62:-0.68175,  61:-0.36132,  60: 0.51023,
                 59:-0.34075,  58: 0.30266,  57:-0.21478,  56:-0.61130,  55: 0.57591,  54:-1.30575,  53:-0.14393,  52: 1.01273,
                 51: 0.25952,  50: 0.74678,  49: 0.64056,  48: 0.21707,  47: 0.12360,  46:-0.67184,  45: 0.28109,  44: 0.30358,
                 43:-0.29666,  42: 0.14961,  41: 0.35918,  40: 0.46163,  39: 0.03480,  38:-1.09838,  37:-0.94360,  36: 0.92223,
                 35:-0.83763,  34:-1.12016,  33:-0.80267,  32: 1.24387,  31: 0.98006,  30: 1.84273,  29:-0.43218,  28: 0.93439,
                 27: 0.65464,  26: 0.72872,  25: 0.78580,  24: 0.12021,  23:-0.62280,  22:-0.59094,  21: 0.37862,  20: 0.15496,
                 19:-0.10109,  18:-0.88639,  17:-0.79697,  16:-0.76612,  15:-1.01609,  14:-0.39851,  13: 0.43205,  12:-1.07329,
                 11:-0.25751,  10:-1.13927,   9: 0.83048,   8: 0.96044,   7:-0.68819,   6: 0.23022,   5: 0.00952,   4:-0.38383,
                  3:-0.73446,   2: 0.88755,   1:-0.06835
   156 |      | 147: 0.30443, 146: 0.17215, 145: 1.02226, 144: 0.88140, 143:-1.23182, 142: 0.58244, 141: 0.03281, 140: 1.10915,
                139:-1.10290, 138: 1.64547, 137: 1.52689, 136: 0.95384, 135: 0.02147, 134:-0.89584, 133:-0.97289, 132: 0.11637,
                131: 0.01429, 130: 0.60192, 129: 0.70636, 128: 0.11763, 127:-0.48781, 126:-0.31273, 125: 0.00753, 124:-0.43605,
                123: 0.14135, 122:-0.06761, 121:-0.40595, 120: 0.21909, 119: 0.70087, 118:-0.35730, 117: 0.87319, 116:-0.26949,
                115: 0.27082, 114:-1.52345, 113: 0.61196, 112: 0.67123, 111:-0.38071, 110:-0.12899, 109:-0.59001, 108: 0.77531,
                107:-0.01092, 106: 0.01324, 105: 0.07924, 104:-0.66635, 103: 0.39956, 102:-0.01256, 101: 0.06590, 100:-0.03165,
                 99:-0.15096,  98:-0.97486,  97:-0.06201,  96:-0.96788,  95: 0.25687,  94: 0.17096,  93: 0.09997,  92: 0.04524,
                 91:-0.62263,  90:-0.05531,  89: 0.15461,  88: 0.24298,  87: 0.54456,  86:-0.21384,  85: 0.35287,  84: 0.66355,
                 83:-0.31950,  82: 0.71310,  81:-0.04754,  80:-0.63690,  79: 0.34691,  78:-0.87783,  77:-0.50827,  76:-0.44187,
                 75: 0.00678,  74: 0.90823,  73:-1.56336,  72:-1.16883,  71:-0.85949,  70: 0.01961,  69:-1.12501,  68:-0.27946,
                 67:-0.27818,  66:-0.24961,  65: 0.32336,  64:-0.42550,  63: 0.44926,  62: 0.25120,  61:-0.21969,  60: 0.75930,
                 59:-1.00281,  58: 0.41777,  57:-1.04344,  56: 0.75195,  55:-0.83829,  54:-0.89811,  53:-0.24425,  52:-0.55444,
                 51:-0.43129,  50:-1.36809,  49: 0.09523,  48:-0.83660,  47: 0.99225,  46:-0.15948,  45:-0.32975,  44:-0.81717,
                 43: 0.16047,  42:-0.79713,  41: 0.57056,  40:-0.33552,  39:-0.11287,  38:-1.47088,  37:-1.00837,  36: 0.09859,
                 35: 0.47300,  34:-1.23652,  33: 1.24124,  32:-2.19992,  31: 1.42929,  30:-1.55800,  29:-0.05535,  28: 0.59208,
                 27: 0.23076,  26:-0.73319,  25:-0.75257,  24: 0.56984,  23: 0.09731,  22:-0.74083,  21: 0.80093,  20:-0.23461,
                 19:-0.82756,  18: 1.01088,  17:-0.55256,  16:-0.91320,  15: 0.48007,  14:-0.93057,  13: 0.24272,  12: 0.85420,
                 11:-3.70158,  10: 0.92736,   9: 0.93962,   8: 2.64493,   7: 0.17539,   6: 0.50779,   5: 0.14147,   4: 0.32500,
                  3: 0.52840,   2: 0.38731,   1: 0.14505
   157 |      | 147:-1.11489, 146:-1.03927, 145: 0.65546, 144: 0.85609, 143:-1.04169, 142:-0.72347, 141:-0.44208, 140:-0.15143,
                139: 0.21638, 138: 0.55741, 137:-0.82533, 136: 0.19778, 135: 0.92296, 134: 0.97288, 133:-0.27052, 132:-0.95195,
                131:-0.94940, 130: 0.83864, 129: 0.75919, 128:-0.78703, 127: 0.58196, 126:-0.03688, 125:-1.07141, 124: 0.50812,
                123: 0.04458, 122:-0.60111, 121:-0.91508, 120:-0.47185, 119:-1.03498, 118: 0.52605, 117: 0.28496, 116: 0.06910,
                115:-0.27793, 114: 1.34462, 113: 0.73972, 112: 0.68494, 111:-0.47068, 110:-0.56418, 109:-0.89664, 108:-0.45631,
                107:-0.11987, 106:-0.22619, 105: 0.56800, 104: 0.77187, 103: 0.63625, 102:-0.15099, 101: 0.60247, 100:-0.82588,
                 99: 0.24616,  98:-0.39170,  97:-0.88335,  96: 0.69664,  95: 0.36837,  94:-0.41292,  93:-0.32028,  92:-0.58396,
                 91:-1.13790,  90:-0.39845,  89: 0.26188,  88:-0.92388,  87:-0.57300,  86: 0.16161,  85: 0.28298,  84:-0.46709,
                 83: 0.10386,  82:-0.14711,  81:-0.45237,  80:-1.02670,  79:-0.65560,  78: 0.09150,  77: 1.15282,  76:-1.47032,
                 75: 0.09113,  74: 0.82404,  73:-0.38229,  72:-0.07203,  71:-0.24225,  70:-0.28287,  69:-0.72217,  68:-1.07364,
                 67: 0.02400,  66:-0.19157,  65:-0.54733,  64:-0.74270,  63: 0.75586,  62: 0.83360,  61: 0.83335,  60: 0.98489,
                 59:-0.64990,  58:-0.97068,  57:-0.31820,  56: 0.87797,  55:-1.13309,  54: 0.71184,  53: 0.91825,  52:-0.08033,
                 51: 0.06125,  50:-0.50422,  49: 0.42154,  48: 0.36322,  47: 0.42380,  46: 0.18701,  45: 0.34532,  44: 0.74309,
                 43:-0.84992,  42: 0.66094,  41:-0.42865,  40: 0.13117,  39:-0.16227,  38:-0.98237,  37:-0.45140,  36:-0.13368,
                 35:-0.01205,  34:-0.94937,  33: 0.44293,  32: 0.75686,  31:-1.95148,  30: 0.75242,  29: 0.58472,  28: 1.13042,
                 27: 0.17494,  26:-0.89932,  25:-0.46913,  24: 0.15623,  23: 0.52773,  22:-0.18972,  21:-0.64756,  20:-0.24589,
                 19: 0.04473,  18: 0.26294,  17:-0.18009,  16: 0.16140,  15: 0.73071,  14:-0.85780,  13: 0.91408,  12: 0.58572,
                 11:-0.83268,  10:-1.31507,   9: 1.93473,   8:-0.46127,   7: 0.81262,   6:-0.70644,   5: 0.83370,   4:-0.72665,
                  3: 0.91446,   2: 0.05578,   1:-0.14093
   158 |      | 147: 0.21333, 146:-1.05378, 145:-0.76741, 144:-0.48067, 143:-0.04250, 142:-0.57769, 141: 0.32065, 140: 0.67932,
                139:-0.13411, 138: 0.37704, 137:-0.12798, 136: 1.65555, 135:-1.25870, 134:-0.53775, 133:-0.55130, 132: 0.95953,
                131:-0.85253, 130: 0.56314, 129:-0.79149, 128: 0.46821, 127: 0.54463, 126: 0.00767, 125: 0.35882, 124: 0.44756,
                123:-0.19523, 122:-1.03074, 121:-0.20977, 120: 0.71857, 119: 0.97111, 118: 0.10432, 117: 0.20378, 116: 0.93695,
                115:-0.22581, 114: 1.23762, 113: 0.19496, 112: 1.02076, 111:-0.94654, 110:-0.11564, 109: 0.87084, 108:-0.55141,
                107:-0.10141, 106:-0.76514, 105: 0.23323, 104: 0.19345, 103: 0.11010, 102:-0.51053, 101:-0.15985, 100: 0.11221,
                 99:-0.61763,  98: 0.61255,  97: 0.12760,  96: 0.92811,  95: 0.64408,  94: 0.61254,  93:-0.89292,  92:-0.62834,
                 91:-0.61644,  90: 0.28728,  89:-0.80213,  88:-0.19301,  87: 0.62748,  86:-0.53607,  85: 0.20384,  84: 0.12400,
                 83:-0.85649,  82:-0.77058,  81:-0.40631,  80: 0.36816,  79: 0.23376,  78: 0.99771,  77:-0.26050,  76: 0.56203,
                 75: 0.83958,  74: 1.09130,  73:-0.17784,  72: 0.52914,  71: 0.41248,  70: 0.06192,  69:-0.50989,  68:-0.88384,
                 67: 0.26315,  66: 0.23254,  65:-0.22557,  64: 0.43178,  63: 0.57203,  62:-0.41625,  61: 0.12357,  60:-0.74875,
                 59: 0.35984,  58: 0.60058,  57: 0.38311,  56:-0.50639,  55: 0.18560,  54:-0.33615,  53:-0.01377,  52:-0.31306,
                 51: 0.24042,  50:-0.51786,  49:-0.25598,  48: 0.16621,  47: 0.51097,  46:-0.03239,  45: 0.90759,  44:-0.12511,
                 43: 0.59730,  42: 0.86949,  41: 0.67380,  40:-0.68235,  39: 0.41782,  38: 0.68704,  37:-0.12052,  36:-0.44782,
                 35: 1.05562,  34: 0.89774,  33: 0.06494,  32: 0.61061,  31:-0.39740,  30: 0.56614,  29: 1.31505,  28: 0.41564,
                 27: 0.92524,  26: 1.00096,  25: 0.71025,  24: 0.75132,  23:-0.34209,  22: 0.55865,  21:-0.29361,  20: 0.54245,
                 19: 0.82550,  18:-0.74313,  17: 0.03355,  16:-0.27346,  15:-0.79578,  14:-0.49595,  13:-0.32926,  12:-0.55107,
                 11: 0.71716,  10:-0.20548,   9:-1.93109,   8: 0.19725,   7:-0.34212,   6:-0.67592,   5:-0.62823,   4:-0.58745,
                  3:-0.32305,   2: 0.05659,   1:-0.92647
   159 |      | 147:-0.14289, 146:-0.05609, 145:-0.38757, 144: 0.57047, 143:-0.46087, 142: 0.83332, 141:-0.89191, 140:-0.60503,
                139: 0.38831, 138:-1.17043, 137:-0.41699, 136: 0.77833, 135: 0.81111, 134:-0.15679, 133:-0.80257, 132:-0.85271,
                131:-1.00527, 130: 0.85200, 129: 0.69259, 128: 0.52827, 127: 0.81620, 126:-0.94972, 125:-0.35883, 124:-0.65115,
                123:-0.97488, 122:-0.17837, 121: 0.13932, 120: 0.31345, 119:-0.36305, 118:-0.39692, 117: 0.43248, 116:-1.24160,
                115: 0.43850, 114: 0.05023, 113: 0.74490, 112:-0.10269, 111:-0.51377, 110: 0.46560, 109:-0.67892, 108: 0.59462,
                107: 0.23006, 106: 0.02868, 105: 0.56768, 104:-0.40400, 103:-0.41397, 102:-0.10129, 101: 0.22543, 100: 0.98925,
                 99:-0.33520,  98:-0.03362,  97:-0.40646,  96: 0.22214,  95: 0.84365,  94: 0.88335,  93: 0.54250,  92:-1.27143,
                 91:-0.85925,  90:-0.33757,  89:-0.48760,  88:-0.96157,  87: 0.06165,  86: 0.79440,  85: 0.02935,  84: 1.03923,
                 83: 0.92365,  82: 0.68329,  81:-0.81530,  80:-0.90317,  79: 0.54051,  78: 0.40562,  77:-1.22165,  76: 0.57354,
                 75: 0.21714,  74:-1.09655,  73: 0.88760,  72: 0.84485,  71:-0.33838,  70: 0.51448,  69: 0.82560,  68: 0.74775,
                 67: 0.22975,  66: 0.05907,  65: 0.11110,  64:-0.89613,  63:-0.27875,  62: 0.87979,  61: 0.89579,  60: 0.29683,
                 59:-0.05724,  58: 1.09798,  57: 0.74046,  56: 0.05663,  55:-0.49073,  54:-0.86339,  53:-0.37745,  52:-0.04949,
                 51: 0.09025,  50:-0.75876,  49: 0.11995,  48:-0.40134,  47: 0.61801,  46:-0.91167,  45:-0.05577,  44: 0.41106,
                 43: 0.45106,  42: 0.41858,  41: 0.96682,  40:-0.39721,  39: 0.61915,  38: 0.48094,  37:-0.65003,  36: 0.21503,
                 35: 1.09421,  34:-0.27489,  33:-0.34179,  32: 0.74290,  31: 0.03031,  30: 0.60395,  29:-0.61813,  28: 0.16662,
                 27:-0.76947,  26: 0.80105,  25: 0.86471,  24: 0.87093,  23: 0.55069,  22:-0.22172,  21:-0.84640,  20: 0.62472,
                 19: 0.70379,  18:-0.91621,  17: 0.84638,  16:-0.42125,  15:-0.96077,  14:-0.83213,  13:-0.18586,  12: 0.60720,
                 11:-0.54292,  10:-0.27882,   9: 0.24209,   8:-0.04560,   7:-0.38350,   6:-0.62592,   5: 0.65992,   4: 0.51132,
                  3: 0.06568,   2:-0.40346,   1:-0.33378
   160 |      | 147:-0.47233, 146: 0.05011, 145:-0.37844, 144:-0.25512, 143:-0.24295, 142:-0.54257, 141:-0.07160, 140:-0.71932,
                139: 0.12726, 138:-0.25649, 137: 1.09482, 136:-1.22087, 135: 0.65276, 134: 1.21094, 133:-0.42885, 132:-0.94454,
                131: 1.00105, 130:-0.51080, 129: 0.56163, 128:-0.84562, 127:-0.22631, 126:-0.10824, 125: 0.14374, 124: 0.27298,
                123:-0.88877, 122: 0.24160, 121:-0.94345, 120:-0.38986, 119: 0.62813, 118:-0.37675, 117:-0.95932, 116:-0.10854,
                115:-0.27913, 114: 0.07880, 113: 0.91689, 112:-0.95893, 111: 0.17628, 110:-0.63498, 109:-0.22029, 108:-0.18182,
                107: 0.40218, 106: 0.47701, 105: 0.09543, 104:-0.72874, 103:-0.26458, 102:-0.22431, 101:-0.33741, 100: 0.48821,
                 99: 0.53589,  98: 0.59441,  97: 0.16293,  96: 0.13101,  95: 0.67303,  94: 0.63949,  93:-1.01778,  92: 1.24406,
                 91: 0.96370,  90:-0.49510,  89:-0.51541,  88: 0.95907,  87:-0.94195,  86:-0.19146,  85:-0.12229,  84: 0.76704,
                 83: 0.78578,  82: 0.86385,  81: 0.28583,  80:-0.25292,  79:-0.00904,  78: 0.25796,  77: 0.59110,  76:-1.02944,
                 75: 0.04945,  74: 0.71650,  73:-1.18250,  72: 0.38973,  71: 0.83929,  70: 0.51721,  69:-0.04558,  68:-0.93537,
                 67: 0.39535,  66: 0.88636,  65:-0.27885,  64: 0.58210,  63:-0.43043,  62:-0.70080,  61: 0.13761,  60:-0.56179,
                 59:-0.49810,  58: 0.57630,  57:-0.79478,  56:-0.97054,  55:-0.08179,  54: 0.38413,  53: 0.59409,  52: 0.23066,
                 51:-0.35225,  50:-0.34017,  49:-0.52476,  48:-0.31365,  47:-0.36400,  46: 0.15122,  45:-0.05705,  44:-0.48633,
                 43: 0.63085,  42:-0.37776,  41: 0.27263,  40:-0.84911,  39:-0.80691,  38:-0.33404,  37:-0.14058,  36: 1.12888,
                 35:-1.21995,  34:-0.70168,  33:-0.99859,  32:-0.12325,  31:-0.10710,  30: 1.65253,  29:-0.89703,  28:-1.07631,
                 27: 0.00455,  26:-0.94685,  25: 0.49699,  24:-0.11408,  23: 0.61606,  22:-0.91231,  21: 0.15735,  20:-0.25780,
                 19:-0.49155,  18: 0.74494,  17: 0.27156,  16: 0.30292,  15: 0.75764,  14: 0.95037,  13:-0.50926,  12:-0.62270,
                 11:-1.44205,  10:-0.61803,   9: 0.71896,   8: 0.93903,   7: 0.14591,   6: 0.95447,   5:-0.11075,   4: 0.74078,
                  3:-0.99421,   2: 0.48775,   1: 0.06486
   161 |      | 147:-0.71383, 146:-0.84158, 145: 0.11520, 144: 0.79922, 143: 0.02853, 142:-0.36384, 141: 0.89795, 140: 0.45077,
                139:-0.77033, 138: 0.87461, 137: 0.00631, 136: 1.59765, 135:-1.03582, 134:-0.32403, 133:-0.18288, 132: 0.29173,
                131:-0.04330, 130:-0.73048, 129:-0.72477, 128: 0.93229, 127: 0.67259, 126:-0.35800, 125:-0.54166, 124: 0.33244,
                123:-0.46935, 122: 0.39313, 121:-0.25036, 120:-0.04629, 119: 0.02002, 118: 0.12161, 117: 0.37775, 116:-0.27087,
                115:-0.79072, 114:-0.08017, 113:-0.46745, 112: 0.50574, 111:-1.03264, 110: 0.06228, 109: 0.05354, 108:-0.93767,
                107:-0.44593, 106:-0.03047, 105:-0.39623, 104:-0.39754, 103:-0.82470, 102:-0.06968, 101: 0.53195, 100: 0.77732,
                 99:-0.69871,  98:-0.35311,  97:-0.75367,  96:-0.01310,  95: 0.24268,  94: 0.60847,  93:-0.33858,  92:-0.73363,
                 91: 0.25614,  90: 0.32012,  89:-0.70146,  88:-0.89997,  87:-0.40667,  86:-0.64574,  85:-1.00702,  84:-0.64240,
                 83: 0.48891,  82:-0.71464,  81:-0.62937,  80: 0.90819,  79:-0.73535,  78: 0.87382,  77:-0.88798,  76:-0.99279,
                 75:-0.03663,  74: 1.05260,  73:-0.46975,  72:-0.11061,  71: 0.41343,  70: 0.15845,  69:-0.97411,  68: 0.00543,
                 67: 0.23046,  66: 0.21715,  65: 0.75198,  64: 0.46584,  63:-0.17061,  62:-0.77944,  61:-0.45691,  60:-0.10285,
                 59: 0.79613,  58:-0.16332,  57:-0.03583,  56:-0.85477,  55: 0.04645,  54:-0.82299,  53: 0.42438,  52: 1.32241,
                 51: 0.22414,  50: 0.40211,  49: 0.94748,  48: 0.36814,  47: 0.39817,  46: 0.76612,  45:-0.58624,  44:-0.38433,
                 43:-0.08604,  42:-0.55181,  41: 0.66233,  40:-0.89553,  39: 0.76234,  38: 0.74593,  37:-0.33886,  36:-0.86175,
                 35:-0.92413,  34:-0.08762,  33:-0.66175,  32: 0.80827,  31: 0.13332,  30: 0.05273,  29:-0.74027,  28:-0.00339,
                 27:-0.06859,  26:-0.30273,  25: 0.48966,  24: 0.66425,  23:-0.82618,  22:-0.18573,  21: 0.31463,  20:-0.94965,
                 19:-0.37644,  18: 0.66713,  17:-0.12343,  16: 0.43676,  15:-0.36059,  14:-0.11110,  13: 1.02746,  12: 0.64339,
                 11:-0.93980,  10: 0.27779,   9: 0.41525,   8: 0.75205,   7: 0.78961,   6:-0.34417,   5:-0.41887,   4: 0.91388,
                  3: 0.33649,   2: 0.56159,   1:-0.40392
   162 |      | 147: 0.77182, 146: 0.40261, 145: 0.02551, 144: 0.99210, 143:-0.35576, 142: 0.73859, 141: 0.70862, 140: 0.33124,
                139: 0.03243, 138: 0.78329, 137: 0.64659, 136: 0.03543, 135:-0.68296, 134: 0.14418, 133: 0.38337, 132:-0.85748,
                131: 1.16636, 130:-0.61050, 129:-0.32946, 128:-0.14079, 127: 1.04080, 126:-0.41170, 125: 0.80895, 124: 0.53174,
                123: 0.40468, 122:-0.53751, 121: 0.01318, 120: 0.12168, 119:-0.74056, 118:-0.88257, 117: 1.41313, 116: 0.06627,
                115:-0.08647, 114:-0.08185, 113: 0.23204, 112: 0.08871, 111: 0.75748, 110:-0.54194, 109: 0.84633, 108: 0.96298,
                107: 0.07807, 106:-0.55293, 105: 1.01302, 104: 0.23277, 103: 1.15161, 102: 0.66867, 101:-0.77928, 100: 0.60311,
                 99:-0.49018,  98: 1.73790,  97:-1.57725,  96: 0.10469,  95: 0.20180,  94:-0.45747,  93:-0.98403,  92: 1.53578,
                 91: 0.69491,  90: 0.17405,  89: 0.46509,  88:-0.46190,  87: 0.77602,  86: 0.46833,  85:-0.69106,  84:-0.45785,
                 83:-0.08236,  82:-0.29142,  81:-0.48848,  80: 0.35570,  79:-0.02163,  78:-0.63614,  77: 0.65291,  76: 0.06690,
                 75:-0.25396,  74:-0.18163,  73:-1.42180,  72:-0.61144,  71: 0.35950,  70: 0.98037,  69: 0.21787,  68: 1.24998,
                 67: 0.43487,  66: 0.98249,  65: 0.26139,  64:-0.04109,  63: 1.04806,  62: 0.58807,  61: 0.70011,  60:-0.85037,
                 59:-0.14203,  58:-1.09444,  57: 0.18007,  56:-1.25688,  55: 1.42991,  54: 0.64525,  53: 1.19710,  52:-0.93658,
                 51:-1.38994,  50: 0.10489,  49: 0.35305,  48:-1.29794,  47: 0.06242,  46:-0.22834,  45: 0.89262,  44:-0.64228,
                 43:-0.49076,  42: 0.08592,  41:-0.53164,  40:-0.32677,  39: 1.08792,  38:-0.94499,  37:-0.84312,  36: 1.63500,
                 35:-1.15885,  34:-0.64612,  33: 0.99910,  32: 1.65930,  31:-1.41295,  30:-0.28196,  29: 1.54931,  28: 0.23850,
                 27:-0.32084,  26:-1.02176,  25: 0.28849,  24:-0.72904,  23:-0.66278,  22: 1.09399,  21: 0.48387,  20:-0.65252,
                 19:-0.61290,  18: 0.75212,  17: 0.07881,  16: 0.36108,  15:-0.59027,  14: 1.19960,  13:-0.34070,  12: 0.48181,
                 11: 1.40145,  10: 1.08715,   9: 0.02561,   8:-0.48310,   7:-0.03297,   6: 0.72627,   5:-0.61040,   4:-0.06074,
                  3:-0.10840,   2:-0.45500,   1: 0.33183
   163 |      | 147: 0.74173, 146: 0.36160, 145: 0.26136, 144: 0.45540, 143: 0.33343, 142: 0.70979, 141: 0.67913, 140:-0.23981,
                139:-0.55512, 138: 1.08618, 137: 1.74493, 136:-1.03317, 135:-1.59036, 134:-0.39621, 133:-1.70543, 132: 0.76441,
                131:-0.78325, 130:-0.20352, 129: 0.85567, 128: 0.56145, 127:-0.13475, 126: 1.12789, 125: 0.35443, 124: 1.18934,
                123:-0.62111, 122: 0.38401, 121: 0.13911, 120:-0.43483, 119: 0.09656, 118:-0.19173, 117: 1.05780, 116: 0.61253,
                115: 0.91568, 114: 1.00814, 113:-1.35468, 112: 0.40266, 111:-0.82994, 110: 0.65269, 109:-0.82497, 108: 0.75698,
                107: 0.64872, 106: 0.86165, 105:-0.39725, 104:-0.30225, 103:-0.79788, 102:-0.73480, 101: 1.51266, 100: 0.07281,
                 99:-0.94620,  98:-1.24820,  97: 0.64453,  96: 0.18749,  95:-0.51738,  94:-0.17899,  93:-0.49783,  92: 0.95394,
                 91:-1.25015,  90:-0.10971,  89: 0.51316,  88: 0.22429,  87: 0.75883,  86: 0.18978,  85: 0.85400,  84:-0.84240,
                 83: 0.59656,  82: 1.11779,  81: 0.11885,  80: 0.00975,  79:-1.18209,  78:-0.05401,  77:-0.67423,  76: 0.51977,
                 75: 1.70917,  74:-0.22445,  73:-0.44834,  72:-0.60002,  71: 0.24461,  70:-0.65211,  69: 0.80218,  68: 0.62598,
                 67:-0.59464,  66:-0.08001,  65:-0.63914,  64:-0.28810,  63:-0.40450,  62: 0.64527,  61:-0.38782,  60:-0.20587,
                 59:-0.04872,  58:-0.20671,  57:-0.01449,  56: 0.13116,  55: 0.09365,  54: 0.34487,  53: 0.47209,  52:-1.15052,
                 51: 0.90676,  50: 0.44893,  49: 1.00830,  48: 0.54313,  47: 0.05326,  46: 1.01915,  45: 0.07472,  44: 0.43318,
                 43:-0.68918,  42: 0.71297,  41: 0.09279,  40: 0.83321,  39:-0.27671,  38: 1.23903,  37:-0.74551,  36:-0.84841,
                 35: 0.58521,  34:-0.84406,  33:-0.45954,  32: 1.24392,  31:-0.57117,  30:-0.04060,  29:-0.02469,  28: 1.10900,
                 27: 0.52944,  26:-0.13491,  25:-0.30563,  24: 0.73467,  23: 0.38539,  22: 0.02033,  21:-0.70566,  20: 0.01084,
                 19: 0.98192,  18: 0.89762,  17:-0.04649,  16:-0.05316,  15: 0.78884,  14:-1.20614,  13: 0.03648,  12:-0.59050,
                 11:-0.37864,  10: 0.08190,   9:-1.32290,   8:-0.26541,   7: 0.00771,   6:-0.05023,   5:-0.35643,   4:-0.27142,
                  3: 0.57888,   2: 0.01779,   1:-0.71293
   164 |      | 147:-0.86218, 146: 0.83462, 145:-0.39742, 144: 0.98306, 143:-0.05571, 142:-0.11005, 141:-0.77776, 140: 0.21403,
                139:-0.01389, 138: 0.96229, 137: 0.21345, 136:-0.47118, 135: 0.74231, 134:-0.09549, 133:-1.10895, 132:-0.19881,
                131:-0.38342, 130: 0.80757, 129: 0.37545, 128: 0.31399, 127:-0.34306, 126: 0.17481, 125:-0.68299, 124: 0.85604,
                123:-0.55733, 122: 0.28495, 121: 0.94220, 120: 0.29021, 119: 0.24591, 118:-0.08368, 117:-0.97271, 116:-0.48999,
                115: 0.85864, 114: 0.95829, 113: 0.20270, 112:-0.92820, 111:-0.26772, 110:-0.32057, 109:-0.36817, 108:-0.38022,
                107:-0.69150, 106:-0.75739, 105:-0.39543, 104:-0.21521, 103:-0.11795, 102:-0.54922, 101: 0.77561, 100: 0.54671,
                 99: 0.15046,  98: 0.29499,  97:-0.48565,  96:-0.65580,  95: 0.65623,  94:-0.76080,  93:-0.10071,  92: 0.71985,
                 91: 0.10195,  90:-0.51695,  89:-0.89288,  88:-0.59072,  87: 0.85626,  86:-0.77114,  85:-0.47544,  84: 0.68179,
                 83: 0.24113,  82:-0.58771,  81:-0.61068,  80:-0.15157,  79:-0.60397,  78:-0.72886,  77: 0.92860,  76: 0.40626,
                 75: 0.46649,  74:-0.69172,  73: 0.20362,  72:-0.97156,  71:-0.63132,  70: 0.68121,  69:-0.23487,  68:-0.90695,
                 67:-0.75046,  66:-0.42169,  65: 0.93701,  64: 0.10199,  63:-0.66518,  62:-0.86733,  61:-0.09758,  60: 0.16684,
                 59: 0.93223,  58:-0.06886,  57: 0.29387,  56: 0.66696,  55: 0.16398,  54:-0.00632,  53:-0.81514,  52:-0.51356,
                 51: 0.29300,  50: 0.27503,  49:-0.70156,  48:-0.03821,  47: 0.41145,  46: 0.04752,  45: 0.38513,  44: 0.26312,
                 43: 0.39601,  42:-0.49215,  41: 0.49782,  40: 0.25662,  39: 0.42579,  38: 0.92658,  37:-0.55460,  36: 0.24933,
                 35: 1.19668,  34: 0.64890,  33: 0.24358,  32: 0.70152,  31:-0.21723,  30:-0.41612,  29: 0.16150,  28: 0.77061,
                 27: 0.14960,  26: 0.09692,  25:-0.94402,  24:-0.70651,  23: 0.21239,  22: 0.65899,  21:-0.98418,  20: 0.13064,
                 19: 0.39246,  18: 0.94330,  17:-0.24751,  16:-0.53714,  15:-0.08449,  14: 0.87332,  13:-0.65041,  12: 0.73606,
                 11:-0.50908,  10: 0.98447,   9:-0.27800,   8: 0.56708,   7: 0.48189,   6: 0.36426,   5: 0.06845,   4:-0.08277,
                  3: 0.04585,   2: 0.08692,   1:-0.42546
   165 |      | 147:-0.53736, 146: 0.41864, 145: 1.03056, 144:-0.03615, 143: 0.11898, 142:-0.07609, 141: 0.62714, 140: 0.39652,
                139:-0.03387, 138:-0.09428, 137:-0.73567, 136:-0.20417, 135: 1.15345, 134:-0.62263, 133: 0.42679, 132: 0.13170,
                131: 0.36899, 130: 0.95415, 129:-0.50548, 128: 0.58176, 127:-0.56908, 126: 0.93438, 125:-0.60833, 124:-0.12709,
                123:-0.14004, 122: 0.47692, 121:-0.72665, 120:-0.73407, 119: 0.00513, 118:-0.53086, 117: 0.01348, 116: 1.07062,
                115: 0.15083, 114:-0.92263, 113:-0.27571, 112: 0.12181, 111:-0.30321, 110: 0.70843, 109:-0.20025, 108: 0.27569,
                107: 0.37517, 106: 0.25762, 105: 0.81888, 104:-0.66205, 103:-0.02868, 102:-0.52256, 101:-0.61375, 100:-0.26985,
                 99: 0.76473,  98:-0.47831,  97:-0.99542,  96: 0.33624,  95: 1.19667,  94:-0.32741,  93: 0.55307,  92:-0.41228,
                 91: 0.33871,  90:-1.17665,  89:-0.11480,  88: 0.77174,  87:-0.80130,  86:-0.91725,  85: 0.83167,  84: 0.06894,
                 83: 0.66409,  82: 0.97316,  81: 0.79170,  80: 1.02469,  79:-0.31714,  78: 1.02707,  77:-0.37969,  76: 0.17146,
                 75: 1.12383,  74: 0.79051,  73:-1.61594,  72: 0.63207,  71: 0.52770,  70:-0.34276,  69:-0.74328,  68:-0.34068,
                 67: 0.28673,  66: 0.81160,  65: 0.66669,  64: 0.40324,  63: 0.61701,  62:-0.89695,  61:-0.65939,  60: 0.28799,
                 59: 0.32098,  58:-0.80356,  57:-0.07015,  56: 0.39330,  55:-0.81782,  54:-0.14831,  53:-0.60914,  52:-0.46177,
                 51:-0.99286,  50: 1.05874,  49: 0.60775,  48: 0.13325,  47: 0.22471,  46:-0.72950,  45:-0.28354,  44:-0.20732,
                 43: 0.41289,  42:-0.36563,  41:-0.93452,  40: 0.19425,  39: 0.28352,  38: 0.22704,  37: 0.16055,  36:-0.14264,
                 35: 0.12626,  34:-0.53689,  33: 0.15714,  32:-0.81868,  31:-1.52390,  30: 0.63959,  29: 0.68890,  28: 0.25066,
                 27: 0.50732,  26: 0.04385,  25: 0.96230,  24: 0.95805,  23: 0.53658,  22: 0.62102,  21: 0.82536,  20: 0.93921,
                 19:-0.94681,  18: 0.60011,  17:-0.69539,  16: 0.88258,  15: 0.21512,  14:-0.61272,  13:-2.17498,  12:-0.33492,
                 11: 0.29356,  10:-0.12674,   9:-1.36415,   8:-0.40438,   7:-0.99836,   6:-0.83378,   5: 0.72642,   4:-0.14687,
                  3:-0.42109,   2:-0.15446,   1:-0.22638
   166 |      | 147: 0.65510, 146:-0.11968, 145: 0.18705, 144: 0.05859, 143: 1.00288, 142:-0.56080, 141:-0.33561, 140: 0.37511,
                139: 0.56018, 138: 0.10275, 137:-0.90192, 136:-0.75946, 135:-0.26976, 134:-0.33497, 133: 0.50014, 132: 0.35416,
                131:-0.61068, 130:-0.89446, 129:-0.29165, 128:-0.80994, 127:-0.84231, 126:-0.44572, 125: 0.04806, 124:-0.19410,
                123:-0.72210, 122:-0.53358, 121:-0.94749, 120: 0.48878, 119: 0.59182, 118:-0.92742, 117: 0.42447, 116: 0.00998,
                115: 0.79031, 114: 0.37283, 113: 0.07660, 112: 0.03354, 111: 0.84365, 110:-0.00956, 109: 0.11929, 108: 0.25310,
                107:-0.59529, 106: 0.80243, 105:-0.36494, 104:-0.72162, 103:-0.96642, 102:-0.12989, 101:-0.09120, 100: 0.32216,
                 99: 0.48839,  98:-0.30154,  97: 0.92813,  96:-0.39167,  95: 0.67440,  94:-0.26625,  93: 0.95953,  92:-0.52252,
                 91:-0.86099,  90:-0.30271,  89: 0.72665,  88: 0.06061,  87:-0.63841,  86:-0.37212,  85: 0.48019,  84: 0.39707,
                 83: 0.84933,  82:-0.91641,  81: 0.47417,  80: 0.27168,  79: 0.76668,  78: 0.66716,  77:-0.45764,  76:-0.75829,
                 75:-0.28637,  74: 0.62982,  73:-0.81132,  72:-0.66151,  71: 0.50373,  70:-0.98437,  69: 0.38792,  68: 0.77562,
                 67: 0.82839,  66:-0.49926,  65: 0.90263,  64: 0.55178,  63:-0.24482,  62:-0.19093,  61: 0.53837,  60:-0.02452,
                 59:-0.72839,  58:-0.70080,  57:-0.79936,  56: 0.75372,  55:-0.24217,  54: 0.51434,  53:-0.32497,  52: 0.58421,
                 51: 0.76368,  50:-0.35378,  49:-0.91417,  48: 0.54344,  47: 0.23267,  46:-0.62044,  45: 0.91132,  44:-0.58992,
                 43: 0.86731,  42: 0.41125,  41:-0.92258,  40: 0.32947,  39:-0.02250,  38:-0.50373,  37:-0.11450,  36: 0.80938,
                 35:-0.39212,  34:-0.15244,  33:-0.44752,  32: 0.57749,  31: 0.44947,  30:-0.35639,  29: 0.47869,  28:-0.85124,
                 27:-0.24638,  26:-0.88237,  25:-0.59055,  24: 0.20088,  23: 0.94291,  22:-0.04981,  21:-0.80120,  20: 0.43522,
                 19: 0.50265,  18: 0.00847,  17:-0.58643,  16: 0.60360,  15:-0.02921,  14:-0.32554,  13: 0.88664,  12: 0.69152,
                 11:-0.67676,  10:-0.12093,   9:-0.81147,   8: 0.73731,   7: 0.67521,   6:-0.24292,   5: 0.01617,   4:-0.19056,
                  3: 0.77468,   2:-0.58488,   1: 0.86540
   167 |      | 147:-0.91911, 146:-0.13634, 145:-0.58050, 144:-0.13563, 143: 1.25312, 142: 0.53794, 141: 0.68047, 140: 0.98062,
                139: 0.16309, 138: 0.94411, 137: 0.44614, 136:-1.67214, 135:-0.73396, 134:-0.02988, 133:-0.20101, 132:-0.91539,
                131:-0.29257, 130:-0.29657, 129:-0.51053, 128:-0.83561, 127:-0.93688, 126: 0.41554, 125: 0.39169, 124: 0.73767,
                123: 0.16213, 122:-0.54108, 121: 0.45388, 120:-0.17502, 119: 1.12046, 118:-1.18650, 117: 0.59368, 116: 0.74475,
                115:-0.42933, 114:-0.91338, 113: 0.72909, 112:-0.02654, 111:-0.36957, 110:-0.70041, 109:-0.84328, 108: 0.68565,
                107:-0.39722, 106:-0.89152, 105:-0.41275, 104: 0.27031, 103:-0.21576, 102: 0.44653, 101:-0.13533, 100: 1.10099,
                 99: 0.51518,  98:-0.76629,  97: 1.10315,  96:-0.11210,  95:-0.39533,  94: 0.43456,  93:-0.54729,  92:-0.12593,
                 91:-0.78889,  90:-0.48315,  89: 0.61555,  88: 0.50876,  87:-0.01269,  86: 0.92384,  85: 0.15324,  84: 0.88059,
                 83:-0.11967,  82:-0.59833,  81:-0.18861,  80:-0.27954,  79: 0.08647,  78: 0.30332,  77:-1.13245,  76: 1.32660,
                 75: 0.23099,  74:-0.04514,  73:-0.67320,  72: 0.44276,  71:-0.60149,  70:-1.11623,  69: 0.00234,  68:-0.86366,
                 67: 0.11231,  66: 0.82015,  65:-0.20519,  64:-0.34624,  63: 0.68817,  62: 0.38064,  61:-0.94050,  60: 0.16000,
                 59: 0.89698,  58:-0.78610,  57: 0.97514,  56:-0.95463,  55:-0.35372,  54:-1.04711,  53:-0.24454,  52: 0.50581,
                 51: 0.02862,  50: 1.02325,  49:-0.75622,  48: 1.08689,  47:-0.70035,  46: 0.62491,  45:-0.06178,  44:-0.04838,
                 43: 0.47482,  42: 0.05472,  41: 0.64034,  40:-0.44813,  39: 0.37861,  38:-0.58608,  37: 0.74978,  36:-0.26960,
                 35: 0.97057,  34:-0.52796,  33: 0.46947,  32: 0.33888,  31:-0.92954,  30:-1.42406,  29:-0.21750,  28: 0.05355,
                 27:-0.77761,  26: 0.42478,  25:-0.36721,  24:-0.10027,  23: 0.88478,  22: 0.20725,  21:-0.57914,  20: 0.37723,
                 19: 0.12546,  18: 0.42536,  17:-1.35998,  16: 0.25868,  15:-0.79182,  14:-0.81047,  13: 1.08784,  12:-0.24420,
                 11: 1.76062,  10:-1.58235,   9:-0.65096,   8: 0.18416,   7: 0.27363,   6: 0.88791,   5: 1.00826,   4: 0.14907,
                  3:-0.78340,   2: 0.24729,   1: 0.55084
   168 |      | 147:-0.63569, 146:-0.16283, 145:-0.80551, 144: 0.39901, 143: 0.48659, 142: 0.40336, 141: 0.09061, 140: 0.80528,
                139:-1.20654, 138:-0.94141, 137: 0.34140, 136: 1.31100, 135:-1.88577, 134: 0.63251, 133:-0.58209, 132:-0.54714,
                131:-0.31412, 130: 0.44243, 129: 0.50430, 128: 0.01620, 127: 1.02439, 126:-0.39745, 125: 0.10815, 124: 1.09789,
                123:-0.71001, 122: 0.07521, 121: 0.46979, 120: 0.74082, 119: 0.05195, 118: 0.85060, 117:-0.00801, 116:-0.21659,
                115: 0.34444, 114: 0.60750, 113: 0.76895, 112: 0.02061, 111:-0.41728, 110:-1.05309, 109:-0.68705, 108: 0.59877,
                107: 0.79938, 106:-0.45232, 105:-0.94589, 104: 0.73124, 103: 0.65325, 102: 0.32736, 101: 1.05774, 100: 0.34712,
                 99:-1.12478,  98:-0.66180,  97:-0.17680,  96:-0.63819,  95:-0.93840,  94:-0.47978,  93: 0.03256,  92:-0.65885,
                 91:-0.53842,  90: 0.41720,  89:-0.09296,  88:-0.72512,  87: 0.59730,  86: 0.28487,  85:-0.86877,  84: 0.09090,
                 83:-0.57409,  82:-0.07496,  81:-1.11065,  80:-0.08204,  79: 0.21805,  78:-0.50791,  77:-0.17486,  76:-0.16075,
                 75: 0.59046,  74:-0.66087,  73:-0.29122,  72: 0.31040,  71: 0.29761,  70: 0.25697,  69: 0.81617,  68: 0.25025,
                 67: 0.21121,  66: 0.84606,  65:-0.55273,  64: 0.59794,  63:-0.26792,  62: 0.75186,  61:-0.64547,  60:-0.18573,
                 59:-0.08448,  58: 0.88036,  57:-0.51009,  56: 0.26383,  55:-0.86143,  54:-0.56263,  53:-0.22212,  52:-0.45623,
                 51:-0.81391,  50: 0.86812,  49:-0.39201,  48: 0.77255,  47: 0.56098,  46:-0.03283,  45: 0.06330,  44:-0.07045,
                 43:-0.23536,  42:-0.59969,  41: 1.01191,  40:-0.08495,  39: 0.15596,  38: 0.90603,  37: 0.03119,  36: 0.40496,
                 35: 0.27690,  34: 1.05904,  33:-0.56364,  32:-1.42793,  31: 0.23172,  30:-0.81948,  29: 0.01891,  28:-0.12499,
                 27:-0.06109,  26: 0.12519,  25: 0.47037,  24: 0.90618,  23: 0.49824,  22: 0.08883,  21: 0.86097,  20: 0.60801,
                 19: 0.52007,  18: 0.79416,  17:-0.22495,  16: 0.33849,  15:-0.51442,  14:-0.73543,  13:-1.86432,  12:-0.77765,
                 11:-1.08997,  10: 0.82970,   9:-1.83155,   8: 0.35522,   7: 1.29426,   6:-1.13020,   5: 0.37493,   4: 0.88093,
                  3:-0.22039,   2:-0.29485,   1:-0.51448
   169 |      | 147:-0.00661, 146: 0.49800, 145: 0.38378, 144:-0.43578, 143:-1.02607, 142:-0.55681, 141: 0.02283, 140: 0.62780,
                139: 0.36176, 138:-1.47355, 137: 0.35169, 136:-0.23930, 135: 1.39719, 134: 0.75728, 133:-0.48207, 132: 0.11291,
                131:-0.00017, 130: 0.67139, 129: 0.32352, 128:-0.04867, 127: 0.14763, 126:-0.46322, 125: 0.17798, 124: 0.82253,
                123: 0.50956, 122:-0.76992, 121:-0.32651, 120:-0.20917, 119: 1.51740, 118: 0.52907, 117: 0.51725, 116:-0.47146,
                115:-1.35269, 114: 1.82221, 113: 0.38449, 112: 0.48144, 111: 0.79062, 110:-0.29071, 109: 1.12524, 108:-0.63833,
                107: 0.73458, 106: 1.08157, 105:-0.57958, 104: 0.09381, 103:-0.11267, 102:-0.67750, 101: 0.08985, 100:-0.21811,
                 99:-0.29705,  98: 0.75142,  97:-0.81007,  96: 0.91307,  95:-0.35995,  94:-1.04291,  93: 0.23265,  92: 0.42669,
                 91:-0.63397,  90: 0.95898,  89: 0.29103,  88: 0.24831,  87:-0.81166,  86:-0.56952,  85: 0.62888,  84:-0.67173,
                 83:-0.02903,  82: 0.17257,  81:-0.98334,  80: 0.58410,  79:-0.49495,  78: 0.74765,  77: 0.52100,  76:-1.30169,
                 75: 1.70095,  74:-1.16470,  73:-1.43812,  72: 1.85950,  71: 0.27445,  70: 0.59129,  69:-0.33617,  68: 1.01175,
                 67:-0.36095,  66:-0.71219,  65:-0.45892,  64:-0.57776,  63: 0.94585,  62: 0.50679,  61: 0.22965,  60:-0.79064,
                 59: 0.44525,  58:-0.42735,  57:-0.25682,  56: 0.85889,  55:-0.75482,  54: 0.23509,  53:-0.29389,  52:-0.57603,
                 51: 0.19390,  50: 0.73431,  49: 0.82325,  48: 0.00909,  47: 0.21631,  46: 0.46836,  45:-0.40340,  44:-0.25244,
                 43:-0.50341,  42:-0.67518,  41: 0.44140,  40:-0.33698,  39:-0.91340,  38:-0.30492,  37:-0.60793,  36: 0.39405,
                 35: 1.01327,  34: 0.30962,  33: 2.36054,  32:-0.63771,  31: 0.55628,  30:-1.51506,  29:-0.67842,  28:-0.15643,
                 27: 0.91263,  26: 0.74710,  25: 1.12320,  24:-0.91164,  23:-0.28144,  22: 0.35726,  21: 0.47556,  20:-0.62749,
                 19: 0.72179,  18:-0.38258,  17: 0.22646,  16: 1.17932,  15:-0.51788,  14: 0.30193,  13: 0.85921,  12:-0.24690,
                 11: 0.04539,  10: 0.79485,   9: 1.69307,   8:-2.14211,   7: 2.21258,   6:-0.44969,   5:-0.33257,   4:-0.38492,
                  3: 0.88186,   2: 0.03930,   1:-0.22112
   170 |      | 147:-0.38268, 146: 1.06660, 145: 0.76040, 144: 0.11905, 143: 0.77772, 142:-0.20471, 141: 0.64630, 140: 1.56639,
                139:-0.25103, 138:-1.29958, 137:-0.07072, 136:-1.29182, 135:-0.71797, 134: 0.26620, 133:-0.26284, 132: 1.37481,
                131: 0.27892, 130: 0.24085, 129: 0.19828, 128:-0.70351, 127:-0.55898, 126:-0.62118, 125: 0.04822, 124: 0.20945,
                123: 0.46136, 122: 0.61253, 121:-0.53656, 120:-0.09166, 119: 0.49074, 118: 0.09896, 117:-0.04313, 116:-1.19000,
                115: 1.06522, 114:-0.89714, 113:-1.06181, 112:-0.11570, 111: 0.57120, 110: 0.47188, 109:-0.01617, 108:-0.75545,
                107: 0.55411, 106: 0.23022, 105: 0.38663, 104:-0.69795, 103:-0.09488, 102: 0.35924, 101: 0.05746, 100: 0.45906,
                 99: 0.32451,  98: 0.75347,  97:-0.69155,  96: 0.17668,  95: 1.05504,  94:-0.26493,  93: 0.07533,  92: 0.55110,
                 91:-0.74228,  90: 0.39370,  89:-0.38718,  88:-0.79520,  87: 0.27543,  86: 0.50413,  85: 0.58435,  84: 1.08048,
                 83: 0.89172,  82: 0.95117,  81:-0.31940,  80: 0.30017,  79:-1.19065,  78:-0.00637,  77: 0.45298,  76:-0.02900,
                 75: 1.33903,  74:-0.54461,  73:-0.27741,  72:-1.49670,  71:-0.96517,  70:-0.90825,  69: 0.67374,  68: 0.32925,
                 67:-0.68200,  66: 0.75563,  65:-0.18708,  64: 0.29844,  63:-0.35567,  62: 1.06012,  61: 0.61455,  60: 0.49787,
                 59: 0.86636,  58: 0.05813,  57:-0.64724,  56: 0.27397,  55:-0.04788,  54: 0.02715,  53:-0.25703,  52:-1.24594,
                 51: 1.13703,  50:-0.75816,  49: 0.34296,  48:-0.36974,  47: 1.05402,  46: 0.25405,  45: 0.93918,  44:-0.34132,
                 43:-0.42690,  42: 0.59305,  41:-0.14411,  40: 0.06656,  39: 0.40066,  38: 1.03565,  37:-0.41284,  36:-0.16489,
                 35:-0.41560,  34:-0.32796,  33:-1.10643,  32:-0.04759,  31: 0.44344,  30: 0.21262,  29:-0.26787,  28:-0.60376,
                 27:-0.95803,  26:-0.83178,  25:-0.03780,  24:-0.25103,  23:-0.49023,  22:-0.35323,  21:-0.48637,  20: 0.15520,
                 19: 0.30823,  18:-0.67172,  17: 0.57213,  16:-0.34294,  15:-0.75686,  14: 0.90136,  13: 0.62188,  12: 0.09929,
                 11: 0.59955,  10: 1.18254,   9: 0.34410,   8:-0.73049,   7: 0.90098,   6:-0.80361,   5: 0.72544,   4:-0.45743,
                  3: 0.44671,   2: 0.48117,   1:-0.68855
   171 |      | 147: 0.40154, 146:-0.85676, 145: 0.17595, 144:-0.06233, 143:-1.03687, 142: 1.04028, 141: 0.62572, 140: 0.99851,
                139: 0.00034, 138:-0.17026, 137: 0.84121, 136: 0.14827, 135:-0.13381, 134: 0.68132, 133:-1.44079, 132: 0.11586,
                131: 0.31926, 130: 0.05285, 129: 0.57818, 128: 0.22740, 127: 0.73378, 126: 0.18670, 125: 0.14812, 124: 0.76068,
                123: 0.35692, 122:-0.54213, 121:-0.90689, 120: 0.36811, 119:-0.87531, 118: 1.20328, 117: 0.60334, 116: 1.33697,
                115: 0.68202, 114: 0.87288, 113: 0.56460, 112: 0.09977, 111: 0.42423, 110:-0.11937, 109:-0.98099, 108:-0.00549,
                107: 0.25407, 106:-0.57890, 105:-0.06136, 104: 0.85329, 103:-0.13075, 102: 0.55140, 101:-0.65162, 100: 0.52386,
                 99:-0.71337,  98: 0.14537,  97:-0.60843,  96:-0.17132,  95:-0.51652,  94: 0.19009,  93:-0.76671,  92:-0.02033,
                 91: 0.66739,  90: 0.82358,  89:-0.03193,  88: 0.07844,  87:-0.85802,  86:-0.79693,  85:-0.25797,  84: 0.74913,
                 83:-0.16993,  82: 0.80177,  81: 0.43617,  80: 0.60590,  79: 0.13774,  78:-0.47577,  77:-0.08081,  76: 0.95505,
                 75: 0.35161,  74: 0.64258,  73:-0.27831,  72: 0.63445,  71:-0.17047,  70:-0.44062,  69: 0.14207,  68: 0.34836,
                 67:-0.31932,  66: 0.59272,  65: 0.06199,  64: 0.65569,  63: 0.28999,  62: 0.35357,  61: 0.32919,  60: 0.13278,
                 59: 0.72677,  58:-0.11782,  57:-0.70134,  56: 0.29671,  55: 0.20666,  54: 0.87308,  53: 0.31663,  52: 0.98657,
                 51: 0.47810,  50: 0.25844,  49: 0.42650,  48: 0.26142,  47:-0.26036,  46: 0.66633,  45:-0.41361,  44:-0.87373,
                 43: 0.00745,  42:-0.03011,  41: 0.39585,  40: 0.14500,  39: 0.47294,  38:-0.48870,  37: 0.68033,  36: 0.71927,
                 35: 0.73555,  34:-0.00797,  33: 0.79129,  32: 0.13898,  31: 1.03326,  30: 0.64351,  29: 0.77995,  28:-0.37300,
                 27: 0.41079,  26: 0.00502,  25:-0.66048,  24: 0.07825,  23: 0.78264,  22: 0.58357,  21:-0.41186,  20: 0.67988,
                 19: 0.79010,  18: 0.19915,  17: 0.92934,  16:-0.72757,  15:-0.73931,  14: 0.02162,  13:-1.01811,  12:-0.23519,
                 11: 0.87376,  10:-0.56999,   9: 1.19648,   8: 0.50713,   7:-0.76232,   6:-0.22192,   5: 0.89024,   4:-0.68595,
                  3:-0.93336,   2: 0.01079,   1: 0.44805
   172 |      | 147:-0.96717, 146: 0.46286, 145: 0.94877, 144:-0.79318, 143:-0.84108, 142: 0.47012, 141:-0.89501, 140:-0.31902,
                139:-0.67459, 138: 0.23053, 137: 0.60981, 136: 0.09789, 135: 0.73409, 134: 0.10721, 133:-0.64076, 132: 0.45645,
                131: 0.19427, 130:-0.53915, 129: 0.36601, 128:-0.45634, 127:-0.25877, 126:-0.82290, 125:-0.45339, 124: 0.10219,
                123: 0.40637, 122:-0.95589, 121: 0.39530, 120:-0.89302, 119: 0.91464, 118: 0.15022, 117:-0.19117, 116: 0.65211,
                115: 0.05843, 114:-1.11137, 113: 0.03475, 112: 0.23534, 111:-0.41062, 110: 0.73324, 109:-0.16029, 108: 0.27417,
                107:-0.22467, 106: 0.19793, 105: 0.25033, 104: 0.54250, 103:-0.76019, 102: 1.00392, 101: 0.24020, 100:-0.34144,
                 99: 0.26719,  98:-0.37806,  97: 0.40668,  96:-0.87244,  95: 0.02577,  94:-0.64858,  93: 0.76035,  92:-0.23439,
                 91:-0.32579,  90:-1.00218,  89:-0.88574,  88:-0.49361,  87:-0.49229,  86: 0.41937,  85:-0.57872,  84:-0.91496,
                 83:-0.54736,  82: 0.86899,  81:-0.76265,  80: 0.56706,  79:-0.78233,  78: 0.80200,  77:-0.69586,  76:-0.54140,
                 75:-0.26208,  74:-0.65465,  73:-0.57067,  72: 0.74497,  71: 0.17855,  70:-0.12593,  69:-0.49836,  68: 0.43313,
                 67: 0.81316,  66: 0.78851,  65: 0.25653,  64: 0.43597,  63:-0.01261,  62:-0.90316,  61: 0.42127,  60: 0.85675,
                 59:-0.75245,  58: 0.73646,  57:-0.99289,  56:-0.88707,  55: 0.37478,  54: 0.27934,  53:-0.23752,  52: 0.43495,
                 51: 0.35013,  50: 0.60173,  49:-0.16105,  48: 0.55715,  47:-0.94533,  46: 0.29339,  45:-0.15185,  44: 0.30238,
                 43:-0.74010,  42:-0.58867,  41:-0.83330,  40:-0.41895,  39: 0.72491,  38: 0.08041,  37:-0.80923,  36: 0.05796,
                 35:-0.32851,  34: 0.64555,  33: 0.65384,  32: 0.06943,  31:-0.33018,  30:-1.03748,  29: 0.15582,  28: 0.70884,
                 27:-0.14940,  26:-0.49461,  25:-0.81640,  24: 0.49303,  23: 0.84570,  22: 0.55507,  21: 0.68413,  20:-0.10097,
                 19:-0.69478,  18: 0.12032,  17: 0.71809,  16: 0.80455,  15:-0.08162,  14: 0.15879,  13:-0.84221,  12: 0.60840,
                 11:-0.93559,  10: 1.03408,   9:-0.35345,   8:-0.39505,   7:-0.08155,   6: 0.52303,   5: 0.34633,   4:-0.54520,
                  3: 1.00833,   2:-0.37516,   1: 0.53429
   173 |      | 147:-0.02475, 146: 0.71433, 145: 0.44362, 144: 0.08978, 143: 0.72691, 142: 0.61566, 141: 0.20359, 140: 0.78454,
                139: 0.39458, 138:-0.74237, 137: 0.04392, 136:-0.34053, 135:-0.36665, 134: 0.57968, 133: 0.78804, 132: 0.34715,
                131: 0.59185, 130:-0.11004, 129: 1.00483, 128:-0.51329, 127:-0.64916, 126: 0.37637, 125: 0.15516, 124: 0.75981,
                123:-0.22293, 122: 0.72063, 121:-0.67955, 120:-0.87046, 119: 0.90219, 118: 0.40951, 117: 1.44897, 116: 0.11861,
                115:-0.90014, 114: 1.03129, 113: 0.67364, 112: 0.71412, 111:-0.72475, 110: 0.57733, 109: 0.64006, 108:-0.64326,
                107:-0.12008, 106: 0.58638, 105: 0.46305, 104: 0.26200, 103:-0.79845, 102:-1.00866, 101:-0.25962, 100: 0.38992,
                 99: 0.10311,  98:-0.63548,  97:-0.04894,  96: 0.69250,  95: 0.53281,  94: 0.03474,  93: 0.51536,  92:-0.79480,
                 91:-0.06377,  90: 0.74474,  89:-0.12975,  88:-0.60952,  87:-0.40873,  86:-0.65615,  85:-0.94661,  84: 0.84460,
                 83:-0.94360,  82:-1.03122,  81:-0.43111,  80: 0.74025,  79: 0.99144,  78:-0.00582,  77: 0.98487,  76: 0.53425,
                 75: 1.04694,  74: 0.40516,  73: 1.37432,  72:-0.54753,  71: 0.51929,  70:-0.27089,  69: 0.86279,  68: 0.87950,
                 67:-0.73450,  66: 0.54453,  65:-0.72856,  64:-0.30799,  63:-0.68527,  62:-0.58704,  61:-0.35821,  60: 0.86585,
                 59:-0.85779,  58: 0.64890,  57:-0.38690,  56: 0.74337,  55:-0.06235,  54:-0.45701,  53:-0.19364,  52: 1.17222,
                 51:-1.03381,  50:-0.12095,  49: 0.68325,  48: 0.24235,  47: 0.26140,  46: 0.55028,  45: 0.58266,  44:-0.06307,
                 43: 0.47070,  42: 0.70986,  41:-0.34068,  40:-0.07666,  39:-0.17256,  38: 0.58929,  37:-0.27633,  36:-0.31778,
                 35:-0.81097,  34: 0.71725,  33:-0.05697,  32: 1.11495,  31: 1.21054,  30:-0.89807,  29: 0.13667,  28:-0.04922,
                 27: 0.71768,  26: 0.84824,  25:-0.25412,  24: 0.38867,  23: 0.06239,  22: 0.55850,  21: 0.51158,  20:-0.54071,
                 19: 0.03882,  18:-0.89369,  17:-0.19518,  16:-0.85519,  15:-0.25787,  14: 1.07677,  13: 0.28226,  12: 0.89247,
                 11: 0.34099,  10:-0.16470,   9: 0.03836,   8: 0.82518,   7: 0.56537,   6:-0.77235,   5: 0.00343,   4: 0.12754,
                  3: 0.20708,   2:-0.21875,   1: 0.19481
   174 |      | 147: 0.20994, 146: 0.12412, 145:-0.10690, 144:-0.20661, 143:-0.28715, 142:-0.78937, 141: 0.12684, 140:-0.25686,
                139:-1.03595, 138:-0.92295, 137: 0.79891, 136:-0.57749, 135:-1.40851, 134: 0.79773, 133:-0.36087, 132: 0.62575,
                131: 0.54516, 130: 0.48452, 129:-0.08517, 128: 0.21539, 127:-0.43252, 126: 0.38058, 125:-0.65503, 124: 0.03304,
                123: 0.42555, 122:-0.47954, 121: 0.08675, 120:-1.09071, 119: 0.10885, 118: 0.38344, 117: 0.39689, 116:-0.89824,
                115: 0.01276, 114:-0.58878, 113:-1.11872, 112: 0.01302, 111:-0.83991, 110: 0.57943, 109:-0.14810, 108:-0.62390,
                107: 0.58813, 106: 0.45522, 105: 0.50865, 104: 0.11262, 103:-0.03129, 102:-0.06746, 101: 0.04704, 100: 0.41979,
                 99:-0.16590,  98: 0.40846,  97:-0.18077,  96:-1.40755,  95:-0.85863,  94:-1.19218,  93: 0.33155,  92:-0.32401,
                 91:-0.75054,  90:-0.77636,  89:-0.64404,  88:-0.76428,  87: 0.86984,  86:-0.40565,  85: 0.81609,  84:-0.49225,
                 83:-0.58001,  82: 0.06278,  81:-0.38155,  80:-0.50368,  79: 0.82586,  78:-1.16663,  77: 0.10495,  76:-0.46521,
                 75:-0.50154,  74:-0.33377,  73: 0.14735,  72: 0.35116,  71:-0.51541,  70:-0.97383,  69:-0.31007,  68: 0.07215,
